genomestart 33
trait 1 0.856807 0.315224 0.0923223 0 0.0855358 0 0.513943 0 
node 1 1 1 1
node 2 1 1 1
node 3 1 1 1
node 4 1 1 1
node 5 1 1 1
node 6 1 1 1
node 7 1 1 1
node 8 1 1 1
node 9 1 1 1
node 10 1 1 1
node 11 1 1 1
node 12 1 1 1
node 13 1 1 1
node 14 1 1 1
node 15 1 1 1
node 16 1 1 1
node 17 1 1 1
node 18 1 1 1
node 19 1 1 1
node 20 1 1 1
node 21 1 1 1
node 22 1 1 1
node 23 1 1 1
node 24 1 1 1
node 25 1 1 1
node 26 1 1 1
node 27 1 1 1
node 28 1 1 1
node 29 1 1 1
node 30 1 1 1
node 31 1 1 1
node 32 1 1 1
node 33 1 1 1
node 34 1 1 1
node 35 1 1 1
node 36 1 1 1
node 37 1 1 1
node 38 1 1 1
node 39 1 1 1
node 40 1 1 1
node 41 1 1 1
node 42 1 1 1
node 43 1 1 1
node 44 1 1 1
node 45 1 1 1
node 46 1 1 1
node 47 1 1 1
node 48 1 1 1
node 49 1 1 1
node 50 1 1 1
node 51 1 1 1
node 52 1 1 1
node 53 1 1 1
node 54 1 1 1
node 55 1 1 1
node 56 1 1 1
node 57 1 1 1
node 58 1 1 1
node 59 1 1 1
node 60 1 1 1
node 61 1 1 1
node 62 1 1 1
node 63 1 1 1
node 64 1 1 1
node 65 1 1 1
node 66 1 1 1
node 67 1 1 1
node 68 1 1 1
node 69 1 1 1
node 70 1 1 1
node 71 1 1 1
node 72 1 1 1
node 73 1 1 1
node 74 1 1 1
node 75 1 1 1
node 76 1 1 1
node 77 1 1 1
node 78 1 1 1
node 79 1 1 1
node 80 1 1 1
node 81 1 1 1
node 82 1 1 1
node 83 1 1 1
node 84 1 1 1
node 85 1 1 1
node 86 1 1 1
node 87 1 1 1
node 88 1 1 1
node 89 1 1 1
node 90 1 1 1
node 91 1 1 1
node 92 1 1 1
node 93 1 1 1
node 94 1 1 1
node 95 1 1 1
node 96 1 1 1
node 97 1 1 1
node 98 1 1 1
node 99 1 1 1
node 100 1 1 1
node 101 1 1 1
node 102 1 1 1
node 103 1 1 1
node 104 1 1 1
node 105 1 1 1
node 106 1 1 1
node 107 1 1 1
node 108 1 1 1
node 109 1 1 1
node 110 1 1 1
node 111 1 1 1
node 112 1 1 1
node 113 1 1 1
node 114 1 1 1
node 115 1 1 1
node 116 1 1 1
node 117 1 1 1
node 118 1 1 1
node 119 1 1 1
node 120 1 1 1
node 121 1 1 1
node 122 1 1 1
node 123 1 1 1
node 124 1 1 1
node 125 1 1 1
node 126 1 1 1
node 127 1 1 1
node 128 1 1 1
node 129 1 1 1
node 130 1 1 1
node 131 1 1 1
node 132 1 1 1
node 133 1 1 1
node 134 1 1 1
node 135 1 1 1
node 136 1 1 1
node 137 1 1 1
node 138 1 1 1
node 139 1 1 1
node 140 1 1 1
node 141 1 1 1
node 142 1 1 1
node 143 1 1 1
node 144 1 1 1
node 145 1 1 1
node 146 1 1 1
node 147 1 1 1
node 148 1 1 1
node 149 1 1 1
node 150 1 1 1
node 151 1 1 1
node 152 1 1 1
node 153 1 1 1
node 154 1 1 1
node 155 1 1 1
node 156 1 1 1
node 157 1 1 1
node 158 1 1 1
node 159 1 1 1
node 160 1 1 1
node 161 1 1 1
node 162 1 1 1
node 163 1 1 1
node 164 1 1 1
node 165 1 1 1
node 166 1 1 1
node 167 1 1 1
node 168 1 1 1
node 169 1 1 1
node 170 1 1 1
node 171 1 1 1
node 172 1 1 1
node 173 1 1 1
node 174 1 1 1
node 175 1 1 1
node 176 1 1 1
node 177 1 1 1
node 178 1 1 1
node 179 1 1 1
node 180 1 1 1
node 181 1 1 1
node 182 1 1 1
node 183 1 1 1
node 184 1 1 1
node 185 1 1 1
node 186 1 1 1
node 187 1 1 1
node 188 1 1 1
node 189 1 1 1
node 190 1 1 1
node 191 1 1 1
node 192 1 1 1
node 193 1 1 1
node 194 1 1 1
node 195 1 1 1
node 196 1 1 1
node 197 1 1 1
node 198 1 1 1
node 199 1 1 1
node 200 1 1 1
node 201 1 1 1
node 202 1 1 1
node 203 1 1 1
node 204 1 1 1
node 205 1 1 1
node 206 1 1 1
node 207 1 1 1
node 208 1 1 1
node 209 1 1 1
node 210 1 1 1
node 211 1 1 1
node 212 1 1 1
node 213 1 1 1
node 214 1 1 1
node 215 1 1 1
node 216 1 1 1
node 217 1 1 1
node 218 1 1 1
node 219 1 1 1
node 220 1 1 1
node 221 1 1 1
node 222 1 1 1
node 223 1 1 1
node 224 1 1 1
node 225 1 1 1
node 226 1 1 1
node 227 1 1 1
node 228 1 1 1
node 229 1 1 1
node 230 1 1 1
node 231 1 1 1
node 232 1 1 1
node 233 1 1 1
node 234 1 1 1
node 235 1 1 1
node 236 1 1 1
node 237 1 1 1
node 238 1 1 1
node 239 1 1 1
node 240 1 1 1
node 241 1 1 1
node 242 1 1 1
node 243 1 1 1
node 244 1 1 1
node 245 1 1 1
node 246 1 1 1
node 247 1 1 1
node 248 1 1 1
node 249 1 1 1
node 250 1 1 1
node 251 1 1 1
node 252 1 1 1
node 253 1 1 1
node 254 1 1 1
node 255 1 1 1
node 256 1 1 1
node 257 1 1 1
node 258 1 1 1
node 259 1 1 1
node 260 1 1 1
node 261 1 1 1
node 262 1 1 1
node 263 1 1 1
node 264 1 1 1
node 265 1 1 1
node 266 1 1 1
node 267 1 1 1
node 268 1 1 1
node 269 1 1 1
node 270 1 1 1
node 271 1 1 1
node 272 1 1 1
node 273 1 1 1
node 274 1 1 1
node 275 1 1 1
node 276 1 1 1
node 277 1 1 1
node 278 1 1 1
node 279 1 1 1
node 280 1 1 1
node 281 1 1 1
node 282 1 1 1
node 283 1 1 1
node 284 1 1 1
node 285 1 1 1
node 286 1 1 1
node 287 1 1 1
node 288 1 1 1
node 289 1 1 1
node 290 1 1 1
node 291 1 1 1
node 292 1 1 1
node 293 1 1 1
node 294 1 1 1
node 295 1 1 1
node 296 1 1 1
node 297 1 1 1
node 298 1 1 1
node 299 1 1 1
node 300 1 1 1
node 301 1 1 1
node 302 1 1 1
node 303 1 1 1
node 304 1 1 1
node 305 1 1 1
node 306 1 1 1
node 307 1 1 1
node 308 1 1 1
node 309 1 1 1
node 310 1 1 1
node 311 1 1 1
node 312 1 1 1
node 313 1 1 1
node 314 1 1 1
node 315 1 1 1
node 316 1 1 1
node 317 1 1 1
node 318 1 1 1
node 319 1 1 1
node 320 1 1 1
node 321 1 1 1
node 322 1 1 1
node 323 1 1 1
node 324 1 1 1
node 325 1 1 1
node 326 1 1 1
node 327 1 1 1
node 328 1 1 1
node 329 1 1 1
node 330 1 1 1
node 331 1 1 1
node 332 1 1 1
node 333 1 1 1
node 334 1 1 1
node 335 1 1 1
node 336 1 1 3
node 337 1 0 2
node 338 1 0 2
node 339 1 0 2
node 340 1 0 2
node 341 1 0 2
node 342 1 0 2
node 343 1 0 2
node 344 1 0 2
node 345 1 0 2
node 346 1 0 2
node 347 1 0 2
node 348 1 0 2
node 349 1 0 2
node 350 1 0 2
node 351 1 0 2
node 352 1 0 2
node 353 1 0 2
node 354 1 0 2
node 376 1 0 0
node 403 1 0 0
node 418 1 0 0
node 438 1 0 0
node 489 1 0 0
node 511 1 0 0
node 519 1 0 0
gene 1 1 337 -3.0486 0 1 -3.0486 1
gene 1 2 337 4.51498 0 2 4.51498 1
gene 1 3 337 1.74974 0 3 1.74974 1
gene 1 4 337 -3.50475 0 4 -3.50475 1
gene 1 5 337 3.43722 0 5 3.43722 1
gene 1 6 337 -2.9096 0 6 -2.9096 1
gene 1 7 337 3.90049 0 7 3.90049 1
gene 1 8 337 0.969039 0 8 0.969039 1
gene 1 9 337 0.395596 0 9 0.395596 1
gene 1 10 337 0.853603 0 10 0.853603 1
gene 1 11 337 4.4153 0 11 4.4153 1
gene 1 12 337 1.42331 0 12 1.42331 1
gene 1 13 337 -3.30546 0 13 -3.30546 1
gene 1 14 337 -3.13135 0 14 -3.13135 1
gene 1 15 337 -0.529496 0 15 -0.529496 1
gene 1 16 337 -2.4733 0 16 -2.4733 1
gene 1 17 337 -3.16279 0 17 -3.16279 1
gene 1 18 337 -3.47605 0 18 -3.47605 1
gene 1 19 337 2.37735 0 19 2.37735 1
gene 1 20 337 -1.58948 0 20 -1.58948 1
gene 1 21 337 -8 0 21 -8 1
gene 1 22 337 -6.42517 0 22 -6.42517 1
gene 1 23 337 -5.1577 0 23 -5.1577 1
gene 1 24 337 1.44627 0 24 1.44627 1
gene 1 25 337 5.43764 0 25 5.43764 1
gene 1 26 337 3.67702 0 26 3.67702 1
gene 1 27 337 -3.34521 0 27 -3.34521 1
gene 1 28 337 0.202719 0 28 0.202719 1
gene 1 29 337 -3.79093 0 29 -3.79093 1
gene 1 30 337 2.66762 0 30 2.66762 1
gene 1 31 337 4.96028 0 31 4.96028 1
gene 1 32 337 2.99257 0 32 2.99257 1
gene 1 33 337 -2.42553 0 33 -2.42553 1
gene 1 34 337 0.309992 0 34 0.309992 1
gene 1 35 337 1.38203 0 35 1.38203 1
gene 1 36 337 -5.77372 0 36 -5.77372 1
gene 1 37 337 -0.143666 0 37 -0.143666 1
gene 1 38 337 -1.15886 0 38 -1.15886 1
gene 1 39 337 5.60221 0 39 5.60221 1
gene 1 40 337 -2.45984 0 40 -2.45984 1
gene 1 41 337 -3.13341 0 41 -3.13341 1
gene 1 42 337 -1.91763 0 42 -1.91763 1
gene 1 43 337 2.63844 0 43 2.63844 1
gene 1 44 337 -1.42575 0 44 -1.42575 1
gene 1 45 337 2.72523 0 45 2.72523 1
gene 1 46 337 -1.2739 0 46 -1.2739 1
gene 1 47 337 4.19414 0 47 4.19414 1
gene 1 48 337 2.39113 0 48 2.39113 1
gene 1 49 337 4.3891 0 49 4.3891 1
gene 1 50 337 -5.61258 0 50 -5.61258 1
gene 1 51 337 2.85348 0 51 2.85348 1
gene 1 52 337 0.537049 0 52 0.537049 1
gene 1 53 337 2.37022 0 53 2.37022 1
gene 1 54 337 3.94856 0 54 3.94856 1
gene 1 55 337 3.6736 0 55 3.6736 1
gene 1 56 337 4.62088 0 56 4.62088 1
gene 1 57 337 0.284272 0 57 0.284272 1
gene 1 58 337 0.970489 0 58 0.970489 1
gene 1 59 337 -0.558031 0 59 -0.558031 1
gene 1 60 337 -4.6354 0 60 -4.6354 1
gene 1 61 337 -1.985 0 61 -1.985 1
gene 1 62 337 0.63493 0 62 0.63493 1
gene 1 63 337 -3.97862 0 63 -3.97862 1
gene 1 64 337 -0.0935392 0 64 -0.0935392 1
gene 1 65 337 5.82087 0 65 5.82087 1
gene 1 66 337 0.800039 0 66 0.800039 1
gene 1 67 337 -0.830714 0 67 -0.830714 1
gene 1 68 337 0.369503 0 68 0.369503 1
gene 1 69 337 -0.284509 0 69 -0.284509 1
gene 1 70 337 1.81356 0 70 1.81356 1
gene 1 71 337 4.26191 0 71 4.26191 1
gene 1 72 337 2.94099 0 72 2.94099 1
gene 1 73 337 2.4955 0 73 2.4955 1
gene 1 74 337 4.55794 0 74 4.55794 1
gene 1 75 337 -0.731986 0 75 -0.731986 1
gene 1 76 337 2.2631 0 76 2.2631 1
gene 1 77 337 3.90263 0 77 3.90263 1
gene 1 78 337 4.83532 0 78 4.83532 1
gene 1 79 337 -4.55374 0 79 -4.55374 1
gene 1 80 337 8 0 80 8 1
gene 1 81 337 8 0 81 8 1
gene 1 82 337 1.32748 0 82 1.32748 1
gene 1 83 337 -8 0 83 -8 1
gene 1 84 337 4.95598 0 84 4.95598 1
gene 1 85 337 1.87994 0 85 1.87994 1
gene 1 86 337 -1.00864 0 86 -1.00864 1
gene 1 87 337 -3.54396 0 87 -3.54396 1
gene 1 88 337 -0.692389 0 88 -0.692389 1
gene 1 89 337 0.294885 0 89 0.294885 1
gene 1 90 337 5.21195 0 90 5.21195 1
gene 1 91 337 1.56713 0 91 1.56713 1
gene 1 92 337 6.59976 0 92 6.59976 1
gene 1 93 337 -4.65621 0 93 -4.65621 1
gene 1 94 337 -0.674001 0 94 -0.674001 1
gene 1 95 337 1.04022 0 95 1.04022 1
gene 1 96 337 8 0 96 8 1
gene 1 97 337 3.44989 0 97 3.44989 1
gene 1 98 337 0.546258 0 98 0.546258 1
gene 1 99 337 -0.0352489 0 99 -0.0352489 1
gene 1 100 337 2.26646 0 100 2.26646 1
gene 1 101 337 -0.860603 0 101 -0.860603 1
gene 1 102 337 -0.693159 0 102 -0.693159 1
gene 1 103 337 0.625282 0 103 0.625282 1
gene 1 104 337 0.55002 0 104 0.55002 1
gene 1 105 337 2.2805 0 105 2.2805 1
gene 1 106 337 -3.78124 0 106 -3.78124 1
gene 1 107 337 4.22758 0 107 4.22758 1
gene 1 108 337 5.91985 0 108 5.91985 1
gene 1 109 337 6.53134 0 109 6.53134 1
gene 1 110 337 -0.874432 0 110 -0.874432 1
gene 1 111 337 4.13198 0 111 4.13198 1
gene 1 112 337 -3.73049 0 112 -3.73049 1
gene 1 113 337 0.802866 0 113 0.802866 1
gene 1 114 337 1.97638 0 114 1.97638 1
gene 1 115 337 5.41129 0 115 5.41129 1
gene 1 116 337 4.72518 0 116 4.72518 1
gene 1 117 337 0.0297555 0 117 0.0297555 1
gene 1 118 337 1.57546 0 118 1.57546 1
gene 1 119 337 6.79238 0 119 6.79238 1
gene 1 120 337 -1.32656 0 120 -1.32656 1
gene 1 121 337 -2.87004 0 121 -2.87004 1
gene 1 122 337 -2.54883 0 122 -2.54883 1
gene 1 123 337 -2.03284 0 123 -2.03284 1
gene 1 124 337 -0.226981 0 124 -0.226981 1
gene 1 125 337 -2.94259 0 125 -2.94259 1
gene 1 126 337 0.144635 0 126 0.144635 1
gene 1 127 337 -2.26896 0 127 -2.26896 1
gene 1 128 337 -0.574053 0 128 -0.574053 1
gene 1 129 337 -3.73058 0 129 -3.73058 1
gene 1 130 337 -0.640965 0 130 -0.640965 1
gene 1 131 337 -0.938978 0 131 -0.938978 1
gene 1 132 337 -3.0044 0 132 -3.0044 1
gene 1 133 337 -0.886868 0 133 -0.886868 1
gene 1 134 337 6.80647 0 134 6.80647 1
gene 1 135 337 -0.734733 0 135 -0.734733 1
gene 1 136 337 2.15936 0 136 2.15936 1
gene 1 137 337 1.56687 0 137 1.56687 1
gene 1 138 337 2.17848 0 138 2.17848 1
gene 1 139 337 -3.03323 0 139 -3.03323 1
gene 1 140 337 -6.15192 0 140 -6.15192 1
gene 1 141 337 -6.48915 0 141 -6.48915 1
gene 1 142 337 0.825831 0 142 0.825831 1
gene 1 143 337 7.18802 0 143 7.18802 1
gene 1 144 337 2.41066 0 144 2.41066 1
gene 1 145 337 0.539415 0 145 0.539415 1
gene 1 146 337 0.970489 0 146 0.970489 1
gene 1 147 337 1.97241 0 147 1.97241 1
gene 1 148 337 3.36962 0 148 3.36962 1
gene 1 149 337 -2.59738 0 149 -2.59738 1
gene 1 150 337 -1.14521 0 150 -1.14521 1
gene 1 151 337 3.50833 0 151 3.50833 1
gene 1 152 337 -0.210883 0 152 -0.210883 1
gene 1 153 337 -3.2252 0 153 -3.2252 1
gene 1 154 337 2.07778 0 154 2.07778 1
gene 1 155 337 -1.71211 0 155 -1.71211 1
gene 1 156 337 2.77894 0 156 2.77894 1
gene 1 157 337 1.38615 0 157 1.38615 1
gene 1 158 337 3.12029 0 158 3.12029 1
gene 1 159 337 1.32214 0 159 1.32214 1
gene 1 160 337 8 0 160 8 1
gene 1 161 337 1.09419 0 161 1.09419 1
gene 1 162 337 -5.28314 0 162 -5.28314 1
gene 1 163 337 2.19298 0 163 2.19298 1
gene 1 164 337 -8 0 164 -8 1
gene 1 165 337 1.1755 0 165 1.1755 1
gene 1 166 337 1.28954 0 166 1.28954 1
gene 1 167 337 -0.589541 0 167 -0.589541 1
gene 1 168 337 -1.55446 0 168 -1.55446 1
gene 1 169 337 -4.63095 0 169 -4.63095 1
gene 1 170 337 2.01491 0 170 2.01491 1
gene 1 171 337 1.50359 0 171 1.50359 1
gene 1 172 337 -3.34494 0 172 -3.34494 1
gene 1 173 337 4.66422 0 173 4.66422 1
gene 1 174 337 4.65931 0 174 4.65931 1
gene 1 175 337 0.310907 0 175 0.310907 1
gene 1 176 337 0.402997 0 176 0.402997 1
gene 1 177 337 -0.557573 0 177 -0.557573 1
gene 1 178 337 4.23017 0 178 4.23017 1
gene 1 179 337 2.53325 0 179 2.53325 1
gene 1 180 337 8 0 180 8 1
gene 1 181 337 1.63628 0 181 1.63628 1
gene 1 182 337 -0.699408 0 182 -0.699408 1
gene 1 183 337 4.75219 0 183 4.75219 1
gene 1 184 337 2.76002 0 184 2.76002 1
gene 1 185 337 -1.71293 0 185 -1.71293 1
gene 1 186 337 5.20444 0 186 5.20444 1
gene 1 187 337 0.476241 0 187 0.476241 1
gene 1 188 337 -0.0608577 0 188 -0.0608577 1
gene 1 189 337 3.64433 0 189 3.64433 1
gene 1 190 337 -3.63252 0 190 -3.63252 1
gene 1 191 337 -1.99399 0 191 -1.99399 1
gene 1 192 337 -3.20201 0 192 -3.20201 1
gene 1 193 337 -2.05756 0 193 -2.05756 1
gene 1 194 337 2.83082 0 194 2.83082 1
gene 1 195 337 7.58304 0 195 7.58304 1
gene 1 196 337 1.55591 0 196 1.55591 1
gene 1 197 337 -0.268334 0 197 -0.268334 1
gene 1 198 337 -8 0 198 -8 1
gene 1 199 337 0.978843 0 199 0.978843 1
gene 1 200 337 1.21761 0 200 1.21761 1
gene 1 201 337 -4.52902 0 201 -4.52902 1
gene 1 202 337 -1.4494 0 202 -1.4494 1
gene 1 203 337 -1.8558 0 203 -1.8558 1
gene 1 204 337 1.5009 0 204 1.5009 1
gene 1 205 337 -1.27255 0 205 -1.27255 1
gene 1 206 337 2.29568 0 206 2.29568 1
gene 1 207 337 -2.62513 0 207 -2.62513 1
gene 1 208 337 1.03311 0 208 1.03311 1
gene 1 209 337 -4.16936 0 209 -4.16936 1
gene 1 210 337 -0.0997955 0 210 -0.0997955 1
gene 1 211 337 -0.249641 0 211 -0.249641 1
gene 1 212 337 8 0 212 8 1
gene 1 213 337 -0.90495 0 213 -0.90495 1
gene 1 214 337 -0.790582 0 214 -0.790582 1
gene 1 215 337 0.373072 0 215 0.373072 1
gene 1 216 337 3.40037 0 216 3.40037 1
gene 1 217 337 -5.77169 0 217 -5.77169 1
gene 1 218 337 -0.63242 0 218 -0.63242 1
gene 1 219 337 -2.12226 0 219 -2.12226 1
gene 1 220 337 -1.29269 0 220 -1.29269 1
gene 1 221 337 -3.17713 0 221 -3.17713 1
gene 1 222 337 -4.5088 0 222 -4.5088 1
gene 1 223 337 -3.1487 0 223 -3.1487 1
gene 1 224 337 1.3233 0 224 1.3233 1
gene 1 225 337 2.89574 0 225 2.89574 1
gene 1 226 337 0.110553 0 226 0.110553 1
gene 1 227 337 -2.27432 0 227 -2.27432 1
gene 1 228 337 -4.73264 0 228 -4.73264 1
gene 1 229 337 -6.37115 0 229 -6.37115 1
gene 1 230 337 -2.79384 0 230 -2.79384 1
gene 1 231 337 -0.0710318 0 231 -0.0710318 1
gene 1 232 337 0.981857 0 232 0.981857 1
gene 1 233 337 -1.25386 0 233 -1.25386 1
gene 1 234 337 -0.740303 0 234 -0.740303 1
gene 1 235 337 -6.60703 0 235 -6.60703 1
gene 1 236 337 -3.30233 0 236 -3.30233 1
gene 1 237 337 5.68086 0 237 5.68086 1
gene 1 238 337 -1.22005 0 238 -1.22005 1
gene 1 239 337 1.59303 0 239 1.59303 1
gene 1 240 337 -2.01842 0 240 -2.01842 1
gene 1 241 337 -0.771203 0 241 -0.771203 1
gene 1 242 337 3.14159 0 242 3.14159 1
gene 1 243 337 -2.33104 0 243 -2.33104 1
gene 1 244 337 -3.99545 0 244 -3.99545 1
gene 1 245 337 1.95105 0 245 1.95105 1
gene 1 246 337 0.98178 0 246 0.98178 1
gene 1 247 337 -3.21856 0 247 -3.21856 1
gene 1 248 337 3.77698 0 248 3.77698 1
gene 1 249 337 -1.37089 0 249 -1.37089 1
gene 1 250 337 -4.38147 0 250 -4.38147 1
gene 1 251 337 -3.72433 0 251 -3.72433 1
gene 1 252 337 1.88902 0 252 1.88902 1
gene 1 253 337 -7.23098 0 253 -7.23098 1
gene 1 254 337 -6.58158 0 254 -6.58158 1
gene 1 255 337 -0.711234 0 255 -0.711234 1
gene 1 256 337 1.32328 0 256 1.32328 1
gene 1 257 337 2.13744 0 257 2.13744 1
gene 1 258 337 -0.175329 0 258 -0.175329 1
gene 1 259 337 -0.974631 0 259 -0.974631 1
gene 1 260 337 -0.00366222 0 260 -0.00366222 1
gene 1 261 337 0.351497 0 261 0.351497 1
gene 1 262 337 0.691626 0 262 0.691626 1
gene 1 263 337 4.58696 0 263 4.58696 1
gene 1 264 337 -1.92503 0 264 -1.92503 1
gene 1 265 337 -0.331736 0 265 -0.331736 1
gene 1 266 337 5.02098 0 266 5.02098 1
gene 1 267 337 -0.424207 0 267 -0.424207 1
gene 1 268 337 -4.96963 0 268 -4.96963 1
gene 1 269 337 1.38989 0 269 1.38989 1
gene 1 270 337 -0.219581 0 270 -0.219581 1
gene 1 271 337 -1.06822 0 271 -1.06822 1
gene 1 272 337 2.74873 0 272 2.74873 1
gene 1 273 337 0.782952 0 273 0.782952 1
gene 1 274 337 0.540559 0 274 0.540559 1
gene 1 275 337 0.550615 0 275 0.550615 1
gene 1 276 337 -4.19892 0 276 -4.19892 1
gene 1 277 337 -1.59711 0 277 -1.59711 1
gene 1 278 337 3.72372 0 278 3.72372 1
gene 1 279 337 -2.16903 0 279 -2.16903 1
gene 1 280 337 5.65742 0 280 5.65742 1
gene 1 281 337 -5.67194 0 281 -5.67194 1
gene 1 282 337 -2.41012 0 282 -2.41012 1
gene 1 283 337 -8 0 283 -8 1
gene 1 284 337 -5.02478 0 284 -5.02478 1
gene 1 285 337 0.944548 0 285 0.944548 1
gene 1 286 337 5.48654 0 286 5.48654 1
gene 1 287 337 2.93268 0 287 2.93268 1
gene 1 288 337 2.11386 0 288 2.11386 1
gene 1 289 337 1.22848 0 289 1.22848 1
gene 1 290 337 1.09348 0 290 1.09348 1
gene 1 291 337 -1.96471 0 291 -1.96471 1
gene 1 292 337 -4.43205 0 292 -4.43205 1
gene 1 293 337 -4.4348 0 293 -4.4348 1
gene 1 294 337 2.25059 0 294 2.25059 1
gene 1 295 337 -1.83736 0 295 -1.83736 1
gene 1 296 337 -0.931043 0 296 -0.931043 1
gene 1 297 337 6.68737 0 297 6.68737 1
gene 1 298 337 0.351039 0 298 0.351039 1
gene 1 299 337 -2.44026 0 299 -2.44026 1
gene 1 300 337 -2.38884 0 300 -2.38884 1
gene 1 301 337 -2.88362 0 301 -2.88362 1
gene 1 302 337 -3.47082 0 302 -3.47082 1
gene 1 303 337 -2.20985 0 303 -2.20985 1
gene 1 304 337 -1.65151 0 304 -1.65151 1
gene 1 305 337 -0.952254 0 305 -0.952254 1
gene 1 306 337 -1.99187 0 306 -1.99187 1
gene 1 307 337 -0.304193 0 307 -0.304193 1
gene 1 308 337 -2.95579 0 308 -2.95579 1
gene 1 309 337 -8 0 309 -8 1
gene 1 310 337 0.0997192 0 310 0.0997192 1
gene 1 311 337 6.46298 0 311 6.46298 1
gene 1 312 337 7.785 0 312 7.785 1
gene 1 313 337 -4.48004 0 313 -4.48004 1
gene 1 314 337 5.13344 0 314 5.13344 1
gene 1 315 337 8 0 315 8 1
gene 1 316 337 0.0785089 0 316 0.0785089 1
gene 1 317 337 8 0 317 8 1
gene 1 318 337 1.51349 0 318 1.51349 1
gene 1 319 337 -0.158925 0 319 -0.158925 1
gene 1 320 337 1.80883 0 320 1.80883 1
gene 1 321 337 0.39697 0 321 0.39697 1
gene 1 322 337 1.86166 0 322 1.86166 1
gene 1 323 337 -6.32217 0 323 -6.32217 1
gene 1 324 337 1.29627 0 324 1.29627 1
gene 1 325 337 1.79334 0 325 1.79334 1
gene 1 326 337 -4.46699 0 326 -4.46699 1
gene 1 327 337 -7.10009 0 327 -7.10009 1
gene 1 328 337 0.490661 0 328 0.490661 1
gene 1 329 337 -5.03224 0 329 -5.03224 1
gene 1 330 337 -7.29833 0 330 -7.29833 1
gene 1 331 337 -8 0 331 -8 1
gene 1 332 337 -0.643483 0 332 -0.643483 1
gene 1 333 337 -1.29994 0 333 -1.29994 1
gene 1 334 337 3.1856 0 334 3.1856 1
gene 1 335 337 -3.75233 0 335 -3.75233 1
gene 1 336 337 -1.58064 0 336 -1.58064 1
gene 1 1 338 -1.44139 0 337 -1.44139 1
gene 1 2 338 -1.45161 0 338 -1.45161 1
gene 1 3 338 -1.49541 0 339 -1.49541 1
gene 1 4 338 -0.980941 0 340 -0.980941 1
gene 1 5 338 3.13486 0 341 3.13486 1
gene 1 6 338 -0.776238 0 342 -0.776238 1
gene 1 7 338 -0.942835 0 343 -0.942835 1
gene 1 8 338 2.95572 0 344 2.95572 1
gene 1 9 338 1.4787 0 345 1.4787 1
gene 1 10 338 -2.36984 0 346 -2.36984 1
gene 1 11 338 0.31093 0 347 0.31093 1
gene 1 12 338 -4.86198 0 348 -4.86198 1
gene 1 13 338 -1.80029 0 349 -1.80029 1
gene 1 14 338 -8 0 350 -8 1
gene 1 15 338 0.288781 0 351 0.288781 1
gene 1 16 338 1.34141 0 352 1.34141 1
gene 1 17 338 0.764412 0 353 0.764412 1
gene 1 18 338 -1.21272 0 354 -1.21272 1
gene 1 19 338 -0.150838 0 355 -0.150838 1
gene 1 20 338 4.73449 0 356 4.73449 1
gene 1 21 338 5.85658 0 357 5.85658 1
gene 1 22 338 -0.205008 0 358 -0.205008 1
gene 1 23 338 5.32968 0 359 5.32968 1
gene 1 24 338 -0.96263 0 360 -0.96263 1
gene 1 25 338 -3.42814 0 361 -3.42814 1
gene 1 26 338 0.412915 0 362 0.412915 1
gene 1 27 338 -0.652104 0 363 -0.652104 1
gene 1 28 338 -0.430654 0 364 -0.430654 1
gene 1 29 338 -1.34305 0 365 -1.34305 1
gene 1 30 338 2.6427 0 366 2.6427 1
gene 1 31 338 -3.45737 0 367 -3.45737 1
gene 1 32 338 3.24107 0 368 3.24107 1
gene 1 33 338 3.69091 0 369 3.69091 1
gene 1 34 338 3.65897 0 370 3.65897 1
gene 1 35 338 4.92611 0 371 4.92611 1
gene 1 36 338 -6.08451 0 372 -6.08451 1
gene 1 37 338 -6.94597 0 373 -6.94597 1
gene 1 38 338 -0.463042 0 374 -0.463042 1
gene 1 39 338 -2.27226 0 375 -2.27226 1
gene 1 40 338 1.53569 0 376 1.53569 1
gene 1 41 338 -5.55735 0 377 -5.55735 1
gene 1 42 338 -0.631764 0 378 -0.631764 1
gene 1 43 338 2.6573 0 379 2.6573 1
gene 1 44 338 0.32899 0 380 0.32899 1
gene 1 45 338 -5.18876 0 381 -5.18876 1
gene 1 46 338 3.40364 0 382 3.40364 1
gene 1 47 338 -1.72774 0 383 -1.72774 1
gene 1 48 338 7.21499 0 384 7.21499 1
gene 1 49 338 3.268 0 385 3.268 1
gene 1 50 338 -2.21717 0 386 -2.21717 1
gene 1 51 338 3.13517 0 387 3.13517 1
gene 1 52 338 5.76887 0 388 5.76887 1
gene 1 53 338 1.92701 0 389 1.92701 1
gene 1 54 338 0.144353 0 390 0.144353 1
gene 1 55 338 -1.2495 0 391 -1.2495 1
gene 1 56 338 0.656697 0 392 0.656697 1
gene 1 57 338 -4.23452 0 393 -4.23452 1
gene 1 58 338 -0.867115 0 394 -0.867115 1
gene 1 59 338 -4.72893 0 395 -4.72893 1
gene 1 60 338 -6.29867 0 396 -6.29867 1
gene 1 61 338 5.5504 0 397 5.5504 1
gene 1 62 338 2.1968 0 398 2.1968 1
gene 1 63 338 6.22437 0 399 6.22437 1
gene 1 64 338 -1.12228 0 400 -1.12228 1
gene 1 65 338 -3.09634 0 401 -3.09634 1
gene 1 66 338 3.8934 0 402 3.8934 1
gene 1 67 338 1.87529 0 403 1.87529 1
gene 1 68 338 0.0348827 0 404 0.0348827 1
gene 1 69 338 -4.85548 0 405 -4.85548 1
gene 1 70 338 -5.80484 0 406 -5.80484 1
gene 1 71 338 -0.398114 0 407 -0.398114 1
gene 1 72 338 -2.03188 0 408 -2.03188 1
gene 1 73 338 3.14501 0 409 3.14501 1
gene 1 74 338 -1.37623 0 410 -1.37623 1
gene 1 75 338 5.06294 0 411 5.06294 1
gene 1 76 338 -5.51462 0 412 -5.51462 1
gene 1 77 338 -3.75355 0 413 -3.75355 1
gene 1 78 338 5.83636 0 414 5.83636 1
gene 1 79 338 2.47442 0 415 2.47442 1
gene 1 80 338 1.01604 0 416 1.01604 1
gene 1 81 338 4.27168 0 417 4.27168 1
gene 1 82 338 -0.219962 0 418 -0.219962 1
gene 1 83 338 -5.0367 0 419 -5.0367 1
gene 1 84 338 2.77325 0 420 2.77325 1
gene 1 85 338 0.550325 0 421 0.550325 0
gene 1 86 338 4.49805 0 422 4.49805 1
gene 1 87 338 1.48465 0 423 1.48465 1
gene 1 88 338 -5.34051 0 424 -5.34051 1
gene 1 89 338 2.59384 0 425 2.59384 1
gene 1 90 338 2.11127 0 426 2.11127 1
gene 1 91 338 -2.96121 0 427 -2.96121 1
gene 1 92 338 -3.64272 0 428 -3.64272 1
gene 1 93 338 -1.29147 0 429 -1.29147 1
gene 1 94 338 -4.33383 0 430 -4.33383 1
gene 1 95 338 0.185095 0 431 0.185095 1
gene 1 96 338 3.06764 0 432 3.06764 1
gene 1 97 338 -1.52585 0 433 -1.52585 1
gene 1 98 338 -1.94657 0 434 -1.94657 1
gene 1 99 338 -4.73096 0 435 -4.73096 1
gene 1 100 338 5.75694 0 436 5.75694 1
gene 1 101 338 -2.88076 0 437 -2.88076 1
gene 1 102 338 6.41888 0 438 6.41888 1
gene 1 103 338 -1.71697 0 439 -1.71697 1
gene 1 104 338 -8 0 440 -8 1
gene 1 105 338 -4.50591 0 441 -4.50591 1
gene 1 106 338 -3.96199 0 442 -3.96199 1
gene 1 107 338 -0.573138 0 443 -0.573138 1
gene 1 108 338 6.11243 0 444 6.11243 1
gene 1 109 338 -6.10027 0 445 -6.10027 1
gene 1 110 338 -1.64243 0 446 -1.64243 1
gene 1 111 338 -0.477882 0 447 -0.477882 1
gene 1 112 338 5.50975 0 448 5.50975 1
gene 1 113 338 -0.698492 0 449 -0.698492 1
gene 1 114 338 0.469451 0 450 0.469451 1
gene 1 115 338 -3.8005 0 451 -3.8005 1
gene 1 116 338 2.1118 0 452 2.1118 1
gene 1 117 338 -2.56867 0 453 -2.56867 1
gene 1 118 338 3.74894 0 454 3.74894 1
gene 1 119 338 5.41746 0 455 5.41746 1
gene 1 120 338 0.973373 0 456 0.973373 1
gene 1 121 338 0.303583 0 457 0.303583 1
gene 1 122 338 -0.22393 0 458 -0.22393 1
gene 1 123 338 1.13292 0 459 1.13292 1
gene 1 124 338 -2.93626 0 460 -2.93626 1
gene 1 125 338 1.60657 0 461 1.60657 1
gene 1 126 338 2.75452 0 462 2.75452 1
gene 1 127 338 -4.85616 0 463 -4.85616 1
gene 1 128 338 3.09412 0 464 3.09412 1
gene 1 129 338 1.36326 0 465 1.36326 1
gene 1 130 338 -1.02799 0 466 -1.02799 1
gene 1 131 338 4.1834 0 467 4.1834 1
gene 1 132 338 -4.83901 0 468 -4.83901 1
gene 1 133 338 8 0 469 8 1
gene 1 134 338 0.279168 0 470 0.279168 1
gene 1 135 338 0.958342 0 471 0.958342 1
gene 1 136 338 -4.26901 0 472 -4.26901 1
gene 1 137 338 -6.04236 0 473 -6.04236 1
gene 1 138 338 -0.163961 0 474 -0.163961 1
gene 1 139 338 -1.39554 0 475 -1.39554 1
gene 1 140 338 1.43933 0 476 1.43933 1
gene 1 141 338 1.49675 0 477 1.49675 1
gene 1 142 338 -5.3779 0 478 -5.3779 1
gene 1 143 338 0.37508 0 479 0.37508 1
gene 1 144 338 -0.207144 0 480 -0.207144 1
gene 1 145 338 -4.41809 0 481 -4.41809 1
gene 1 146 338 2.27134 0 482 2.27134 1
gene 1 147 338 3.76095 0 483 3.76095 1
gene 1 148 338 4.40443 0 484 4.40443 1
gene 1 149 338 -8 0 485 -8 1
gene 1 150 338 -5.58023 0 486 -5.58023 1
gene 1 151 338 -5.19836 0 487 -5.19836 1
gene 1 152 338 6.92912 0 488 6.92912 1
gene 1 153 338 -4.37849 0 489 -4.37849 1
gene 1 154 338 -3.06528 0 490 -3.06528 1
gene 1 155 338 6.06148 0 491 6.06148 1
gene 1 156 338 -1.83058 0 492 -1.83058 1
gene 1 157 338 -2.22404 0 493 -2.22404 1
gene 1 158 338 -7.45413 0 494 -7.45413 1
gene 1 159 338 0.114673 0 495 0.114673 1
gene 1 160 338 1.34495 0 496 1.34495 1
gene 1 161 338 1.95524 0 497 1.95524 1
gene 1 162 338 0.739769 0 498 0.739769 1
gene 1 163 338 -4.05133 0 499 -4.05133 1
gene 1 164 338 0.960341 0 500 0.960341 1
gene 1 165 338 -2.37793 0 501 -2.37793 1
gene 1 166 338 -3.52939 0 502 -3.52939 1
gene 1 167 338 0.19364 0 503 0.19364 1
gene 1 168 338 -1.48358 0 504 -1.48358 1
gene 1 169 338 -1.28674 0 505 -1.28674 1
gene 1 170 338 -3.08891 0 506 -3.08891 1
gene 1 171 338 -1.96352 0 507 -1.96352 1
gene 1 172 338 -2.77833 0 508 -2.77833 1
gene 1 173 338 -3.49643 0 509 -3.49643 1
gene 1 174 338 6.92686 0 510 6.92686 1
gene 1 175 338 3.0398 0 511 3.0398 1
gene 1 176 338 1.1269 0 512 1.1269 1
gene 1 177 338 2.27042 0 513 2.27042 1
gene 1 178 338 3.4815 0 514 3.4815 1
gene 1 179 338 -0.814997 0 515 -0.814997 1
gene 1 180 338 -0.897473 0 516 -0.897473 1
gene 1 181 338 0.419401 0 517 0.419401 1
gene 1 182 338 -3.336 0 518 -3.336 1
gene 1 183 338 3.671 0 519 3.671 1
gene 1 184 338 2.06884 0 520 2.06884 1
gene 1 185 338 0.476012 0 521 0.476012 1
gene 1 186 338 2.43645 0 522 2.43645 1
gene 1 187 338 -0.750755 0 523 -0.750755 1
gene 1 188 338 -2.44781 0 524 -2.44781 1
gene 1 189 338 0.701697 0 525 0.701697 1
gene 1 190 338 -0.271004 0 526 -0.271004 1
gene 1 191 338 -3.42586 0 527 -3.42586 1
gene 1 192 338 1.43802 0 528 1.43802 1
gene 1 193 338 -6.11309 0 529 -6.11309 1
gene 1 194 338 2.24321 0 530 2.24321 1
gene 1 195 338 1.88177 0 531 1.88177 1
gene 1 196 338 3.37329 0 532 3.37329 1
gene 1 197 338 -8 0 533 -8 1
gene 1 198 338 3.90158 0 534 3.90158 1
gene 1 199 338 -0.443358 0 535 -0.443358 1
gene 1 200 338 -2.91513 0 536 -2.91513 1
gene 1 201 338 2.09815 0 537 2.09815 1
gene 1 202 338 1.39431 0 538 1.39431 1
gene 1 203 338 -1.04656 0 539 -1.04656 1
gene 1 204 338 3.11979 0 540 3.11979 1
gene 1 205 338 -2.85913 0 541 -2.85913 1
gene 1 206 338 -1.92633 0 542 -1.92633 1
gene 1 207 338 2.93115 0 543 2.93115 1
gene 1 208 338 6.93455 0 544 6.93455 1
gene 1 209 338 5.09674 0 545 5.09674 1
gene 1 210 338 -3.92689 0 546 -3.92689 1
gene 1 211 338 1.12876 0 547 1.12876 1
gene 1 212 338 -1.06609 0 548 -1.06609 1
gene 1 213 338 3.67412 0 549 3.67412 1
gene 1 214 338 -0.919897 0 550 -0.919897 1
gene 1 215 338 0.190741 0 551 0.190741 1
gene 1 216 338 4.46394 0 552 4.46394 1
gene 1 217 338 2.29774 0 553 2.29774 1
gene 1 218 338 -8 0 554 -8 1
gene 1 219 338 -4.59059 0 555 -4.59059 1
gene 1 220 338 3.08405 0 556 3.08405 1
gene 1 221 338 -4.64369 0 557 -4.64369 1
gene 1 222 338 -1.90565 0 558 -1.90565 1
gene 1 223 338 -1.69548 0 559 -1.69548 1
gene 1 224 338 -4.0727 0 560 -4.0727 1
gene 1 225 338 -6.92701 0 561 -6.92701 1
gene 1 226 338 3.3179 0 562 3.3179 1
gene 1 227 338 0.973998 0 563 0.973998 1
gene 1 228 338 2.4546 0 564 2.4546 1
gene 1 229 338 8 0 565 8 1
gene 1 230 338 5.72732 0 566 5.72732 1
gene 1 231 338 1.77747 0 567 1.77747 1
gene 1 232 338 -2.48619 0 568 -2.48619 1
gene 1 233 338 -3.27464 0 569 -3.27464 1
gene 1 234 338 -0.979492 0 570 -0.979492 1
gene 1 235 338 2.71569 0 571 2.71569 1
gene 1 236 338 1.09149 0 572 1.09149 1
gene 1 237 338 -3.66688 0 573 -3.66688 1
gene 1 238 338 -2.06664 0 574 -2.06664 1
gene 1 239 338 -3.94749 0 575 -3.94749 1
gene 1 240 338 -1.70316 0 576 -1.70316 1
gene 1 241 338 -3.29951 0 577 -3.29951 1
gene 1 242 338 6.39256 0 578 6.39256 1
gene 1 243 338 4.76432 0 579 4.76432 1
gene 1 244 338 2.54707 0 580 2.54707 1
gene 1 245 338 3.28242 0 581 3.28242 1
gene 1 246 338 -0.40521 0 582 -0.40521 1
gene 1 247 338 4.35926 0 583 4.35926 1
gene 1 248 338 -3.06825 0 584 -3.06825 1
gene 1 249 338 -2.72515 0 585 -2.72515 1
gene 1 250 338 -3.80197 0 586 -3.80197 1
gene 1 251 338 7.98695 0 587 7.98695 1
gene 1 252 338 0.565781 0 588 0.565781 1
gene 1 253 338 -2.80358 0 589 -2.80358 1
gene 1 254 338 6.67885 0 590 6.67885 1
gene 1 255 338 -1.38623 0 591 -1.38623 1
gene 1 256 338 -3.53633 0 592 -3.53633 1
gene 1 257 338 -0.747551 0 593 -0.747551 1
gene 1 258 338 2.24158 0 594 2.24158 1
gene 1 259 338 -1.32305 0 595 -1.32305 1
gene 1 260 338 1.36616 0 596 1.36616 1
gene 1 261 338 -0.966063 0 597 -0.966063 1
gene 1 262 338 0.467544 0 598 0.467544 1
gene 1 263 338 -0.870846 0 599 -0.870846 1
gene 1 264 338 1.44322 0 600 1.44322 1
gene 1 265 338 2.50763 0 601 2.50763 1
gene 1 266 338 7.20084 0 602 7.20084 1
gene 1 267 338 2.26554 0 603 2.26554 1
gene 1 268 338 4.08246 0 604 4.08246 1
gene 1 269 338 -2.0597 0 605 -2.0597 1
gene 1 270 338 -0.921812 0 606 -0.921812 1
gene 1 271 338 -0.891751 0 607 -0.891751 1
gene 1 272 338 -2.63482 0 608 -2.63482 1
gene 1 273 338 5.32861 0 609 5.32861 1
gene 1 274 338 4.82386 0 610 4.82386 1
gene 1 275 338 -3.90386 0 611 -3.90386 1
gene 1 276 338 7.64657 0 612 7.64657 1
gene 1 277 338 1.35651 0 613 1.35651 1
gene 1 278 338 -2.30552 0 614 -2.30552 1
gene 1 279 338 -0.549944 0 615 -0.549944 1
gene 1 280 338 1.35796 0 616 1.35796 1
gene 1 281 338 5.20176 0 617 5.20176 1
gene 1 282 338 -6.62049 0 618 -6.62049 1
gene 1 283 338 -1.74657 0 619 -1.74657 1
gene 1 284 338 -1.05427 0 620 -1.05427 1
gene 1 285 338 0.127537 0 621 0.127537 1
gene 1 286 338 -1.24088 0 622 -1.24088 1
gene 1 287 338 2.78497 0 623 2.78497 1
gene 1 288 338 -1.31652 0 624 -1.31652 1
gene 1 289 338 -1.85995 0 625 -1.85995 1
gene 1 290 338 2.22602 0 626 2.22602 1
gene 1 291 338 3.46842 0 627 3.46842 1
gene 1 292 338 -1.15818 0 628 -1.15818 1
gene 1 293 338 1.13849 0 629 1.13849 1
gene 1 294 338 -4.14584 0 630 -4.14584 1
gene 1 295 338 2.20511 0 631 2.20511 1
gene 1 296 338 -0.556459 0 632 -0.556459 1
gene 1 297 338 -2.06885 0 633 -2.06885 1
gene 1 298 338 -5.22744 0 634 -5.22744 1
gene 1 299 338 -3.4521 0 635 -3.4521 1
gene 1 300 338 1.39554 0 636 1.39554 1
gene 1 301 338 -1.03816 0 637 -1.03816 1
gene 1 302 338 2.65641 0 638 2.65641 1
gene 1 303 338 -0.210044 0 639 -0.210044 1
gene 1 304 338 0.61388 0 640 0.61388 1
gene 1 305 338 0.322884 0 641 0.322884 1
gene 1 306 338 5.26971 0 642 5.26971 1
gene 1 307 338 0.860012 0 643 0.860012 1
gene 1 308 338 -0.454581 0 644 -0.454581 1
gene 1 309 338 -0.792413 0 645 -0.792413 1
gene 1 310 338 -1.6277 0 646 -1.6277 1
gene 1 311 338 0.710395 0 647 0.710395 1
gene 1 312 338 2.80908 0 648 2.80908 1
gene 1 313 338 -8 0 649 -8 1
gene 1 314 338 0.650044 0 650 0.650044 1
gene 1 315 338 -1.73704 0 651 -1.73704 1
gene 1 316 338 4.7766 0 652 4.7766 1
gene 1 317 338 4.80791 0 653 4.80791 1
gene 1 318 338 -5.77342 0 654 -5.77342 1
gene 1 319 338 2.79572 0 655 2.79572 1
gene 1 320 338 0.693075 0 656 0.693075 1
gene 1 321 338 1.50052 0 657 1.50052 1
gene 1 322 338 2.69692 0 658 2.69692 1
gene 1 323 338 2.33032 0 659 2.33032 1
gene 1 324 338 1.90039 0 660 1.90039 1
gene 1 325 338 6.94356 0 661 6.94356 1
gene 1 326 338 -1.5611 0 662 -1.5611 1
gene 1 327 338 -5.06603 0 663 -5.06603 1
gene 1 328 338 2.57683 0 664 2.57683 1
gene 1 329 338 -5.17914 0 665 -5.17914 1
gene 1 330 338 0.477309 0 666 0.477309 1
gene 1 331 338 2.09172 0 667 2.09172 1
gene 1 332 338 -2.53708 0 668 -2.53708 1
gene 1 333 338 -1.99332 0 669 -1.99332 1
gene 1 334 338 5.37529 0 670 5.37529 1
gene 1 335 338 -1.71525 0 671 -1.71525 1
gene 1 336 338 -4.90761 0 672 -4.90761 1
gene 1 1 339 0.716727 0 673 0.716727 1
gene 1 2 339 -1.90413 0 674 -1.90413 1
gene 1 3 339 1.05978 0 675 1.05978 1
gene 1 4 339 -2.46423 0 676 -2.46423 1
gene 1 5 339 2.0085 0 677 2.0085 1
gene 1 6 339 -0.967971 0 678 -0.967971 1
gene 1 7 339 -5.91797 0 679 -5.91797 1
gene 1 8 339 2.18703 0 680 2.18703 1
gene 1 9 339 3.68576 0 681 3.68576 1
gene 1 10 339 4.19137 0 682 4.19137 1
gene 1 11 339 -6.08153 0 683 -6.08153 1
gene 1 12 339 0.735038 0 684 0.735038 1
gene 1 13 339 5.65341 0 685 5.65341 1
gene 1 14 339 1.84385 0 686 1.84385 1
gene 1 15 339 5.03273 0 687 5.03273 1
gene 1 16 339 4.2954 0 688 4.2954 1
gene 1 17 339 3.06443 0 689 3.06443 1
gene 1 18 339 1.32923 0 690 1.32923 1
gene 1 19 339 7.40661 0 691 7.40661 1
gene 1 20 339 -4.26023 0 692 -4.26023 1
gene 1 21 339 -4.19684 0 693 -4.19684 1
gene 1 22 339 -8 0 694 -8 1
gene 1 23 339 4.87278 0 695 4.87278 1
gene 1 24 339 -2.78207 0 696 -2.78207 1
gene 1 25 339 1.64846 0 697 1.64846 1
gene 1 26 339 1.80509 0 698 1.80509 1
gene 1 27 339 5.61298 0 699 5.61298 1
gene 1 28 339 7.86724 0 700 7.86724 1
gene 1 29 339 -1.06957 0 701 -1.06957 1
gene 1 30 339 -0.310602 0 702 -0.310602 1
gene 1 31 339 3.521 0 703 3.521 1
gene 1 32 339 -4.92608 0 704 -4.92608 1
gene 1 33 339 2.37365 0 705 2.37365 1
gene 1 34 339 3.05807 0 706 3.05807 1
gene 1 35 339 5.97722 0 707 5.97722 1
gene 1 36 339 -0.941343 0 708 -0.941343 1
gene 1 37 339 4.57981 0 709 4.57981 1
gene 1 38 339 -4.3482 0 710 -4.3482 1
gene 1 39 339 7.3611 0 711 7.3611 1
gene 1 40 339 2.23647 0 712 2.23647 1
gene 1 41 339 1.67119 0 713 1.67119 1
gene 1 42 339 -8 0 714 -8 1
gene 1 43 339 -4.89719 0 715 -4.89719 1
gene 1 44 339 -5.16129 0 716 -5.16129 1
gene 1 45 339 -5.32434 0 717 -5.32434 1
gene 1 46 339 0.593738 0 718 0.593738 1
gene 1 47 339 0.230415 0 719 0.230415 1
gene 1 48 339 0.978591 0 720 0.978591 1
gene 1 49 339 -0.870457 0 721 -0.870457 1
gene 1 50 339 8 0 722 8 1
gene 1 51 339 7.12394 0 723 7.12394 1
gene 1 52 339 -4.15906 0 724 -4.15906 1
gene 1 53 339 -3.86219 0 725 -3.86219 1
gene 1 54 339 4.24627 0 726 4.24627 1
gene 1 55 339 -0.341502 0 727 -0.341502 1
gene 1 56 339 -0.958892 0 728 -0.958892 1
gene 1 57 339 -0.446638 0 729 -0.446638 1
gene 1 58 339 -4.93019 0 730 -4.93019 1
gene 1 59 339 -3.33918 0 731 -3.33918 1
gene 1 60 339 1.0522 0 732 1.0522 1
gene 1 61 339 -1.11156 0 733 -1.11156 1
gene 1 62 339 1.82455 0 734 1.82455 1
gene 1 63 339 -3.09427 0 735 -3.09427 1
gene 1 64 339 2.43728 0 736 2.43728 1
gene 1 65 339 -0.0676519 0 737 -0.0676519 1
gene 1 66 339 0.161596 0 738 0.161596 1
gene 1 67 339 -0.484939 0 739 -0.484939 1
gene 1 68 339 -2.93931 0 740 -2.93931 1
gene 1 69 339 -0.863521 0 741 -0.863521 1
gene 1 70 339 0.0516526 0 742 0.0516526 1
gene 1 71 339 -1.85344 0 743 -1.85344 1
gene 1 72 339 5.86493 0 744 5.86493 1
gene 1 73 339 -1.57041 0 745 -1.57041 1
gene 1 74 339 -1.59254 0 746 -1.59254 1
gene 1 75 339 -4.99489 0 747 -4.99489 1
gene 1 76 339 -0.4326 0 748 -0.4326 1
gene 1 77 339 5.50478 0 749 5.50478 1
gene 1 78 339 6.04397 0 750 6.04397 1
gene 1 79 339 -5.00267 0 751 -5.00267 1
gene 1 80 339 0.0601978 0 752 0.0601978 1
gene 1 81 339 -0.67835 0 753 -0.67835 1
gene 1 82 339 2.07045 0 754 2.07045 1
gene 1 83 339 -5.48415 0 755 -5.48415 1
gene 1 84 339 2.11135 0 756 2.11135 1
gene 1 85 339 4.26977 0 757 4.26977 1
gene 1 86 339 0.483356 0 758 0.483356 1
gene 1 87 339 -3.62278 0 759 -3.62278 1
gene 1 88 339 -6.19758 0 760 -6.19758 1
gene 1 89 339 0.406652 0 761 0.406652 1
gene 1 90 339 2.25532 0 762 2.25532 1
gene 1 91 339 1.68592 0 763 1.68592 1
gene 1 92 339 -4.66591 0 764 -4.66591 1
gene 1 93 339 -5.50456 0 765 -5.50456 1
gene 1 94 339 -7.68368 0 766 -7.68368 1
gene 1 95 339 -0.29487 0 767 -0.29487 1
gene 1 96 339 4.79102 0 768 4.79102 1
gene 1 97 339 0.536973 0 769 0.536973 1
gene 1 98 339 -0.806986 0 770 -0.806986 1
gene 1 99 339 2.17338 0 771 2.17338 1
gene 1 100 339 2.34321 0 772 2.34321 1
gene 1 101 339 0.567263 0 773 0.567263 1
gene 1 102 339 -5.49928 0 774 -5.49928 1
gene 1 103 339 5.8562 0 775 5.8562 1
gene 1 104 339 1.87162 0 776 1.87162 1
gene 1 105 339 -2.93672 0 777 -2.93672 1
gene 1 106 339 4.66109 0 778 4.66109 1
gene 1 107 339 6.26637 0 779 6.26637 1
gene 1 108 339 4.60267 0 780 4.60267 1
gene 1 109 339 -5.29916 0 781 -5.29916 1
gene 1 110 339 -0.0284585 0 782 -0.0284585 1
gene 1 111 339 -2.78126 0 783 -2.78126 1
gene 1 112 339 2.50579 0 784 2.50579 1
gene 1 113 339 -3.89912 0 785 -3.89912 1
gene 1 114 339 -6.64028 0 786 -6.64028 1
gene 1 115 339 1.47237 0 787 1.47237 1
gene 1 116 339 0.777924 0 788 0.777924 1
gene 1 117 339 -1.05403 0 789 -1.05403 1
gene 1 118 339 -5.53972 0 790 -5.53972 1
gene 1 119 339 -0.47647 0 791 -0.47647 1
gene 1 120 339 2.96081 0 792 2.96081 1
gene 1 121 339 3.86696 0 793 3.86696 1
gene 1 122 339 -1.19066 0 794 -1.19066 0
gene 1 123 339 -0.184713 0 795 -0.184713 1
gene 1 124 339 0.781655 0 796 0.781655 1
gene 1 125 339 3.52441 0 797 3.52441 1
gene 1 126 339 -1.4143 0 798 -1.4143 1
gene 1 127 339 -3.58866 0 799 -3.58866 1
gene 1 128 339 7.54718 0 800 7.54718 1
gene 1 129 339 -0.526063 0 801 -0.526063 1
gene 1 130 339 -2.15515 0 802 -2.15515 1
gene 1 131 339 3.55892 0 803 3.55892 1
gene 1 132 339 8 0 804 8 1
gene 1 133 339 -0.951491 0 805 -0.951491 1
gene 1 134 339 -2.22892 0 806 -2.22892 1
gene 1 135 339 -1.6377 0 807 -1.6377 1
gene 1 136 339 1.09279 0 808 1.09279 1
gene 1 137 339 -0.282907 0 809 -0.282907 1
gene 1 138 339 0.0682089 0 810 0.0682089 1
gene 1 139 339 8 0 811 8 1
gene 1 140 339 -3.49705 0 812 -3.49705 1
gene 1 141 339 2.41025 0 813 2.41025 1
gene 1 142 339 -2.18551 0 814 -2.18551 1
gene 1 143 339 -4.99913 0 815 -4.99913 1
gene 1 144 339 4.69579 0 816 4.69579 1
gene 1 145 339 -0.276269 0 817 -0.276269 1
gene 1 146 339 0.0128941 0 818 0.0128941 1
gene 1 147 339 1.97661 0 819 1.97661 1
gene 1 148 339 -8 0 820 -8 1
gene 1 149 339 -0.591067 0 821 -0.591067 1
gene 1 150 339 6.43933 0 822 6.43933 1
gene 1 151 339 4.00092 0 823 4.00092 1
gene 1 152 339 2.35672 0 824 2.35672 1
gene 1 153 339 -6.17244 0 825 -6.17244 1
gene 1 154 339 3.81817 0 826 3.81817 1
gene 1 155 339 -2.03726 0 827 -2.03726 1
gene 1 156 339 -3.91392 0 828 -3.91392 1
gene 1 157 339 1.48961 0 829 1.48961 1
gene 1 158 339 -3.86967 0 830 -3.86967 1
gene 1 159 339 -0.122868 0 831 -0.122868 1
gene 1 160 339 -4.5262 0 832 -4.5262 1
gene 1 161 339 4.51544 0 833 4.51544 1
gene 1 162 339 -1.7778 0 834 -1.7778 1
gene 1 163 339 0.693083 0 835 0.693083 1
gene 1 164 339 -2.01125 0 836 -2.01125 1
gene 1 165 339 -2.73774 0 837 -2.73774 1
gene 1 166 339 1.08435 0 838 1.08435 1
gene 1 167 339 -1.1008 0 839 -1.1008 1
gene 1 168 339 5.54308 0 840 5.54308 1
gene 1 169 339 -6.49854 0 841 -6.49854 1
gene 1 170 339 -7.79946 0 842 -7.79946 1
gene 1 171 339 2.0632 0 843 2.0632 1
gene 1 172 339 -3.22268 0 844 -3.22268 1
gene 1 173 339 -1.70804 0 845 -1.70804 1
gene 1 174 339 -7.17402 0 846 -7.17402 1
gene 1 175 339 -3.31831 0 847 -3.31831 1
gene 1 176 339 -7.02762 0 848 -7.02762 1
gene 1 177 339 -4.41867 0 849 -4.41867 1
gene 1 178 339 -1.00588 0 850 -1.00588 1
gene 1 179 339 0.919294 0 851 0.919294 1
gene 1 180 339 -1.39119 0 852 -1.39119 1
gene 1 181 339 6.21487 0 853 6.21487 1
gene 1 182 339 0.665021 0 854 0.665021 1
gene 1 183 339 0.168489 0 855 0.168489 1
gene 1 184 339 0.552004 0 856 0.552004 1
gene 1 185 339 -4.14197 0 857 -4.14197 1
gene 1 186 339 -4.84977 0 858 -4.84977 1
gene 1 187 339 5.40345 0 859 5.40345 1
gene 1 188 339 8 0 860 8 1
gene 1 189 339 4.73731 0 861 4.73731 1
gene 1 190 339 1.82218 0 862 1.82218 1
gene 1 191 339 -3.89203 0 863 -3.89203 1
gene 1 192 339 -0.914792 0 864 -0.914792 1
gene 1 193 339 0.599307 0 865 0.599307 1
gene 1 194 339 5.59458 0 866 5.59458 1
gene 1 195 339 -2.13721 0 867 -2.13721 1
gene 1 196 339 2.89384 0 868 2.89384 1
gene 1 197 339 -1.49884 0 869 -1.49884 1
gene 1 198 339 7.65671 0 870 7.65671 1
gene 1 199 339 -8 0 871 -8 1
gene 1 200 339 -3.44493 0 872 -3.44493 1
gene 1 201 339 -5.66454 0 873 -5.66454 1
gene 1 202 339 2.7056 0 874 2.7056 1
gene 1 203 339 -6.37611 0 875 -6.37611 1
gene 1 204 339 -3.80955 0 876 -3.80955 1
gene 1 205 339 -5.09957 0 877 -5.09957 1
gene 1 206 339 0.0221259 0 878 0.0221259 1
gene 1 207 339 3.67985 0 879 3.67985 1
gene 1 208 339 2.7646 0 880 2.7646 1
gene 1 209 339 0.989715 0 881 0.989715 1
gene 1 210 339 4.62583 0 882 4.62583 1
gene 1 211 339 -3.06276 0 883 -3.06276 1
gene 1 212 339 -0.949965 0 884 -0.949965 1
gene 1 213 339 3.09992 0 885 3.09992 1
gene 1 214 339 -7.55875 0 886 -7.55875 1
gene 1 215 339 -7.92592 0 887 -7.92592 1
gene 1 216 339 -4.77874 0 888 -4.77874 1
gene 1 217 339 0.248638 0 889 0.248638 1
gene 1 218 339 2.1118 0 890 2.1118 1
gene 1 219 339 -2.57836 0 891 -2.57836 1
gene 1 220 339 2.71714 0 892 2.71714 1
gene 1 221 339 -0.841472 0 893 -0.841472 1
gene 1 222 339 -2.08983 0 894 -2.08983 1
gene 1 223 339 0.588378 0 895 0.588378 1
gene 1 224 339 0.996887 0 896 0.996887 1
gene 1 225 339 3.21818 0 897 3.21818 1
gene 1 226 339 -2.01704 0 898 -2.01704 1
gene 1 227 339 3.08 0 899 3.08 1
gene 1 228 339 4.87013 0 900 4.87013 1
gene 1 229 339 -5.41231 0 901 -5.41231 1
gene 1 230 339 0.68453 0 902 0.68453 1
gene 1 231 339 1.94731 0 903 1.94731 1
gene 1 232 339 3.55564 0 904 3.55564 1
gene 1 233 339 -3.54259 0 905 -3.54259 1
gene 1 234 339 6.14733 0 906 6.14733 1
gene 1 235 339 4.69031 0 907 4.69031 1
gene 1 236 339 1.46268 0 908 1.46268 1
gene 1 237 339 5.48718 0 909 5.48718 1
gene 1 238 339 -2.75285 0 910 -2.75285 1
gene 1 239 339 -2.90071 0 911 -2.90071 1
gene 1 240 339 0.316477 0 912 0.316477 1
gene 1 241 339 -2.03596 0 913 -2.03596 1
gene 1 242 339 0.795236 0 914 0.795236 1
gene 1 243 339 2.05996 0 915 2.05996 1
gene 1 244 339 -7.13686 0 916 -7.13686 1
gene 1 245 339 -4.46402 0 917 -4.46402 1
gene 1 246 339 -5.0766 0 918 -5.0766 1
gene 1 247 339 -4.66906 0 919 -4.66906 1
gene 1 248 339 -8 0 920 -8 1
gene 1 249 339 -1.1079 0 921 -1.1079 1
gene 1 250 339 -0.435881 0 922 -0.435881 1
gene 1 251 339 -7.15705 0 923 -7.15705 1
gene 1 252 339 -5.0792 0 924 -5.0792 1
gene 1 253 339 -4.89342 0 925 -4.89342 1
gene 1 254 339 0.762505 0 926 0.762505 1
gene 1 255 339 5.02521 0 927 5.02521 1
gene 1 256 339 -2.24303 0 928 -2.24303 1
gene 1 257 339 -5.0228 0 929 -5.0228 1
gene 1 258 339 -5.50157 0 930 -5.50157 1
gene 1 259 339 1.23241 0 931 1.23241 1
gene 1 260 339 -2.93802 0 932 -2.93802 1
gene 1 261 339 -5.07416 0 933 -5.07416 1
gene 1 262 339 -6.20289 0 934 -6.20289 1
gene 1 263 339 -1.71549 0 935 -1.71549 1
gene 1 264 339 -1.91023 0 936 -1.91023 1
gene 1 265 339 0.799738 0 937 0.799738 1
gene 1 266 339 -2.95358 0 938 -2.95358 1
gene 1 267 339 -0.284509 0 939 -0.284509 1
gene 1 268 339 -0.0575274 0 940 -0.0575274 1
gene 1 269 339 -7.1105 0 941 -7.1105 1
gene 1 270 339 -7.22425 0 942 -7.22425 1
gene 1 271 339 5.74548 0 943 5.74548 1
gene 1 272 339 1.04328 0 944 1.04328 1
gene 1 273 339 0.812937 0 945 0.812937 1
gene 1 274 339 0.165181 0 946 0.165181 1
gene 1 275 339 0.472884 0 947 0.472884 1
gene 1 276 339 -0.375454 0 948 -0.375454 1
gene 1 277 339 -1.53813 0 949 -1.53813 1
gene 1 278 339 6.06082 0 950 6.06082 1
gene 1 279 339 3.22054 0 951 3.22054 1
gene 1 280 339 8 0 952 8 1
gene 1 281 339 0.197836 0 953 0.197836 1
gene 1 282 339 -0.58414 0 954 -0.58414 1
gene 1 283 339 1.77136 0 955 1.77136 1
gene 1 284 339 -1.42535 0 956 -1.42535 1
gene 1 285 339 0.00770592 0 957 0.00770592 1
gene 1 286 339 0.492431 0 958 0.492431 1
gene 1 287 339 -4.63958 0 959 -4.63958 1
gene 1 288 339 -4.02527 0 960 -4.02527 1
gene 1 289 339 -1.62854 0 961 -1.62854 1
gene 1 290 339 -2.22617 0 962 -2.22617 1
gene 1 291 339 -5.65668 0 963 -5.65668 1
gene 1 292 339 -0.923032 0 964 -0.923032 1
gene 1 293 339 -1.64966 0 965 -1.64966 1
gene 1 294 339 0.601432 0 966 0.601432 0
gene 1 295 339 -3.48979 0 967 -3.48979 1
gene 1 296 339 8 0 968 8 1
gene 1 297 339 2.35726 0 969 2.35726 1
gene 1 298 339 -2.1063 0 970 -2.1063 1
gene 1 299 339 -1.55698 0 971 -1.55698 1
gene 1 300 339 2.24143 0 972 2.24143 1
gene 1 301 339 -4.57343 0 973 -4.57343 1
gene 1 302 339 -4.42709 0 974 -4.42709 1
gene 1 303 339 -6.73215 0 975 -6.73215 1
gene 1 304 339 -8 0 976 -8 1
gene 1 305 339 -3.07974 0 977 -3.07974 1
gene 1 306 339 3.47758 0 978 3.47758 1
gene 1 307 339 4.66597 0 979 4.66597 1
gene 1 308 339 2.26875 0 980 2.26875 1
gene 1 309 339 -6.90866 0 981 -6.90866 1
gene 1 310 339 2.13744 0 982 2.13744 1
gene 1 311 339 -1.00787 0 983 -1.00787 1
gene 1 312 339 -1.55087 0 984 -1.55087 1
gene 1 313 339 -2.29095 0 985 -2.29095 1
gene 1 314 339 1.69507 0 986 1.69507 1
gene 1 315 339 -8 0 987 -8 1
gene 1 316 339 -4.40402 0 988 -4.40402 1
gene 1 317 339 0.511376 0 989 0.511376 1
gene 1 318 339 2.68731 0 990 2.68731 1
gene 1 319 339 -3.56723 0 991 -3.56723 1
gene 1 320 339 -4.65682 0 992 -4.65682 1
gene 1 321 339 -0.581851 0 993 -0.581851 1
gene 1 322 339 -7.62413 0 994 -7.62413 1
gene 1 323 339 1.78671 0 995 1.78671 1
gene 1 324 339 -8 0 996 -8 1
gene 1 325 339 3.14528 0 997 3.14528 1
gene 1 326 339 -2.98051 0 998 -2.98051 1
gene 1 327 339 -5.14739 0 999 -5.14739 1
gene 1 328 339 -2.04215 0 1000 -2.04215 1
gene 1 329 339 0.730384 0 1001 0.730384 1
gene 1 330 339 0.49234 0 1002 0.49234 1
gene 1 331 339 7.44232 0 1003 7.44232 1
gene 1 332 339 0.824671 0 1004 0.824671 1
gene 1 333 339 2.93706 0 1005 2.93706 1
gene 1 334 339 4.80944 0 1006 4.80944 1
gene 1 335 339 3.84397 0 1007 3.84397 1
gene 1 336 339 -2.78378 0 1008 -2.78378 1
gene 1 1 340 -5.63517 0 1009 -5.63517 1
gene 1 2 340 -5.68529 0 1010 -5.68529 1
gene 1 3 340 -4.16298 0 1011 -4.16298 1
gene 1 4 340 -3.43107 0 1012 -3.43107 1
gene 1 5 340 -0.859935 0 1013 -0.859935 1
gene 1 6 340 4.69615 0 1014 4.69615 1
gene 1 7 340 -0.345698 0 1015 -0.345698 1
gene 1 8 340 2.69601 0 1016 2.69601 1
gene 1 9 340 -7.94627 0 1017 -7.94627 1
gene 1 10 340 -0.846889 0 1018 -0.846889 1
gene 1 11 340 -1.56545 0 1019 -1.56545 1
gene 1 12 340 4.07018 0 1020 4.07018 1
gene 1 13 340 -5.89247 0 1021 -5.89247 1
gene 1 14 340 2.67067 0 1022 2.67067 1
gene 1 15 340 -2.95384 0 1023 -2.95384 1
gene 1 16 340 -1.11225 0 1024 -1.11225 1
gene 1 17 340 1.54065 0 1025 1.54065 1
gene 1 18 340 3.23405 0 1026 3.23405 1
gene 1 19 340 5.63387 0 1027 5.63387 1
gene 1 20 340 -3.6005 0 1028 -3.6005 1
gene 1 21 340 3.02896 0 1029 3.02896 1
gene 1 22 340 -0.690634 0 1030 -0.690634 1
gene 1 23 340 -1.10418 0 1031 -1.10418 1
gene 1 24 340 -1.0126 0 1032 -1.0126 1
gene 1 25 340 -0.0484481 0 1033 -0.0484481 1
gene 1 26 340 6.75423 0 1034 6.75423 1
gene 1 27 340 1.98874 0 1035 1.98874 1
gene 1 28 340 2.50046 0 1036 2.50046 1
gene 1 29 340 5.98483 0 1037 5.98483 1
gene 1 30 340 -1.88421 0 1038 -1.88421 1
gene 1 31 340 3.77812 0 1039 3.77812 1
gene 1 32 340 -0.00367176 0 1040 -0.00367176 1
gene 1 33 340 2.32398 0 1041 2.32398 1
gene 1 34 340 -1.2865 0 1042 -1.2865 1
gene 1 35 340 -2.89586 0 1043 -2.89586 1
gene 1 36 340 -0.963088 0 1044 -0.963088 1
gene 1 37 340 4.95505 0 1045 4.95505 1
gene 1 38 340 6.39355 0 1046 6.39355 1
gene 1 39 340 -0.995548 0 1047 -0.995548 1
gene 1 40 340 1.35123 0 1048 1.35123 1
gene 1 41 340 -3.09252 0 1049 -3.09252 1
gene 1 42 340 0.60152 0 1050 0.60152 1
gene 1 43 340 -6.46522 0 1051 -6.46522 1
gene 1 44 340 -1.32817 0 1052 -1.32817 1
gene 1 45 340 1.47862 0 1053 1.47862 1
gene 1 46 340 3.60599 0 1054 3.60599 1
gene 1 47 340 0.614322 0 1055 0.614322 1
gene 1 48 340 -6.68691 0 1056 -6.68691 1
gene 1 49 340 -3.53282 0 1057 -3.53282 1
gene 1 50 340 -1.31054 0 1058 -1.31054 1
gene 1 51 340 1.63953 0 1059 1.63953 1
gene 1 52 340 -5.90121 0 1060 -5.90121 1
gene 1 53 340 0.365535 0 1061 0.365535 1
gene 1 54 340 4.12191 0 1062 4.12191 1
gene 1 55 340 5.36892 0 1063 5.36892 1
gene 1 56 340 -0.683515 0 1064 -0.683515 1
gene 1 57 340 -0.85757 0 1065 -0.85757 1
gene 1 58 340 -6.39767 0 1066 -6.39767 1
gene 1 59 340 8 0 1067 8 1
gene 1 60 340 2.0397 0 1068 2.0397 1
gene 1 61 340 -4.46554 0 1069 -4.46554 1
gene 1 62 340 -4.98321 0 1070 -4.98321 1
gene 1 63 340 -3.58376 0 1071 -3.58376 1
gene 1 64 340 8 0 1072 8 1
gene 1 65 340 -2.89193 0 1073 -2.89193 1
gene 1 66 340 -3.09729 0 1074 -3.09729 1
gene 1 67 340 -0.626705 0 1075 -0.626705 1
gene 1 68 340 -1.15726 0 1076 -1.15726 1
gene 1 69 340 -0.700323 0 1077 -0.700323 1
gene 1 70 340 0.501572 0 1078 0.501572 1
gene 1 71 340 7.34994 0 1079 7.34994 1
gene 1 72 340 -0.225074 0 1080 -0.225074 1
gene 1 73 340 4.15442 0 1081 4.15442 1
gene 1 74 340 -2.42265 0 1082 -2.42265 1
gene 1 75 340 -6.56697 0 1083 -6.56697 1
gene 1 76 340 4.51201 0 1084 4.51201 1
gene 1 77 340 -7.74804 0 1085 -7.74804 1
gene 1 78 340 -0.27459 0 1086 -0.27459 1
gene 1 79 340 2.87369 0 1087 2.87369 1
gene 1 80 340 -3.51657 0 1088 -3.51657 1
gene 1 81 340 -5.83448 0 1089 -5.83448 1
gene 1 82 340 8 0 1090 8 1
gene 1 83 340 -3.98267 0 1091 -3.98267 1
gene 1 84 340 -4.65323 0 1092 -4.65323 1
gene 1 85 340 -2.15824 0 1093 -2.15824 1
gene 1 86 340 2.67495 0 1094 2.67495 1
gene 1 87 340 -4.39222 0 1095 -4.39222 1
gene 1 88 340 1.55644 0 1096 1.55644 1
gene 1 89 340 -1.32679 0 1097 -1.32679 1
gene 1 90 340 0.447096 0 1098 0.447096 1
gene 1 91 340 1.15062 0 1099 1.15062 1
gene 1 92 340 -1.91946 0 1100 -1.91946 1
gene 1 93 340 3.16469 0 1101 3.16469 1
gene 1 94 340 4.39261 0 1102 4.39261 1
gene 1 95 340 2.85919 0 1103 2.85919 1
gene 1 96 340 -0.68865 0 1104 -0.68865 1
gene 1 97 340 -3.88318 0 1105 -3.88318 1
gene 1 98 340 0.647675 0 1106 0.647675 1
gene 1 99 340 -3.31191 0 1107 -3.31191 1
gene 1 100 340 6.40393 0 1108 6.40393 1
gene 1 101 340 3.90584 0 1109 3.90584 1
gene 1 102 340 -6.06563 0 1110 -6.06563 1
gene 1 103 340 -3.60477 0 1111 -3.60477 1
gene 1 104 340 -3.04323 0 1112 -3.04323 1
gene 1 105 340 -0.026017 0 1113 -0.026017 1
gene 1 106 340 1.63244 0 1114 1.63244 1
gene 1 107 340 -0.704749 0 1115 -0.704749 1
gene 1 108 340 -5.15381 0 1116 -5.15381 1
gene 1 109 340 -0.730155 0 1117 -0.730155 1
gene 1 110 340 2.52611 0 1118 2.52611 1
gene 1 111 340 0.0107578 0 1119 0.0107578 1
gene 1 112 340 -0.86436 0 1120 -0.86436 1
gene 1 113 340 -1.98689 0 1121 -1.98689 1
gene 1 114 340 -1.70888 0 1122 -1.70888 1
gene 1 115 340 6.97977 0 1123 6.97977 1
gene 1 116 340 -4.72739 0 1124 -4.72739 1
gene 1 117 340 -0.415914 0 1125 -0.415914 1
gene 1 118 340 1.51807 0 1126 1.51807 1
gene 1 119 340 6.27308 0 1127 6.27308 1
gene 1 120 340 -5.87298 0 1128 -5.87298 1
gene 1 121 340 0.940123 0 1129 0.940123 1
gene 1 122 340 -2.06697 0 1130 -2.06697 1
gene 1 123 340 -2.03993 0 1131 -2.03993 1
gene 1 124 340 -3.69442 0 1132 -3.69442 1
gene 1 125 340 -1.26263 0 1133 -1.26263 1
gene 1 126 340 -1.81074 0 1134 -1.81074 1
gene 1 127 340 -1.20716 0 1135 -1.20716 1
gene 1 128 340 0.171972 0 1136 0.171972 1
gene 1 129 340 3.10503 0 1137 3.10503 1
gene 1 130 340 1.69576 0 1138 1.69576 1
gene 1 131 340 -4.83009 0 1139 -4.83009 1
gene 1 132 340 0.150151 0 1140 0.150151 1
gene 1 133 340 -3.4946 0 1141 -3.4946 1
gene 1 134 340 0.334895 0 1142 0.334895 1
gene 1 135 340 0.343562 0 1143 0.343562 1
gene 1 136 340 -0.107273 0 1144 -0.107273 1
gene 1 137 340 6.31954 0 1145 6.31954 1
gene 1 138 340 -2.13557 0 1146 -2.13557 1
gene 1 139 340 7.89849 0 1147 7.89849 1
gene 1 140 340 3.34964 0 1148 3.34964 1
gene 1 141 340 1.56316 0 1149 1.56316 1
gene 1 142 340 8 0 1150 8 1
gene 1 143 340 -2.75933 0 1151 -2.75933 1
gene 1 144 340 -4.0157 0 1152 -4.0157 1
gene 1 145 340 5.78598 0 1153 5.78598 1
gene 1 146 340 -5.55681 0 1154 -5.55681 1
gene 1 147 340 8 0 1155 8 1
gene 1 148 340 0.482727 0 1156 0.482727 1
gene 1 149 340 -4.5188 0 1157 -4.5188 1
gene 1 150 340 -1.9158 0 1158 -1.9158 1
gene 1 151 340 -0.689642 0 1159 -0.689642 1
gene 1 152 340 2.18601 0 1160 2.18601 1
gene 1 153 340 -8 0 1161 -8 1
gene 1 154 340 -1.91427 0 1162 -1.91427 1
gene 1 155 340 -2.76376 0 1163 -2.76376 1
gene 1 156 340 0.716651 0 1164 0.716651 1
gene 1 157 340 1.2917 0 1165 1.2917 1
gene 1 158 340 0.0315523 0 1166 0.0315523 1
gene 1 159 340 1.17679 0 1167 1.17679 1
gene 1 160 340 -2.16597 0 1168 -2.16597 1
gene 1 161 340 -3.28913 0 1169 -3.28913 1
gene 1 162 340 4.73785 0 1170 4.73785 1
gene 1 163 340 -4.94217 0 1171 -4.94217 1
gene 1 164 340 3.52596 0 1172 3.52596 1
gene 1 165 340 0.691855 0 1173 0.691855 1
gene 1 166 340 1.657 0 1174 1.657 1
gene 1 167 340 -2.16506 0 1175 -2.16506 1
gene 1 168 340 0.31251 0 1176 0.31251 1
gene 1 169 340 0.569399 0 1177 0.569399 1
gene 1 170 340 3.24046 0 1178 3.24046 1
gene 1 171 340 0.177847 0 1179 0.177847 1
gene 1 172 340 4.80186 0 1180 4.80186 1
gene 1 173 340 3.31831 0 1181 3.31831 1
gene 1 174 340 -4.00578 0 1182 -4.00578 1
gene 1 175 340 1.27602 0 1183 1.27602 1
gene 1 176 340 4.10489 0 1184 4.10489 1
gene 1 177 340 -5.47677 0 1185 -5.47677 1
gene 1 178 340 -4.68215 0 1186 -4.68215 1
gene 1 179 340 4.30021 0 1187 4.30021 1
gene 1 180 340 1.39668 0 1188 1.39668 1
gene 1 181 340 1.37936 0 1189 1.37936 1
gene 1 182 340 2.23253 0 1190 2.23253 1
gene 1 183 340 0.84666 0 1191 0.84666 1
gene 1 184 340 1.6126 0 1192 1.6126 1
gene 1 185 340 0.5562 0 1193 0.5562 1
gene 1 186 340 1.49579 0 1194 1.49579 1
gene 1 187 340 2.3751 0 1195 2.3751 1
gene 1 188 340 8 0 1196 8 1
gene 1 189 340 -4.55657 0 1197 -4.55657 1
gene 1 190 340 -2.24158 0 1198 -2.24158 1
gene 1 191 340 2.15114 0 1199 2.15114 1
gene 1 192 340 -3.45395 0 1200 -3.45395 1
gene 1 193 340 4.14922 0 1201 4.14922 1
gene 1 194 340 -5.14245 0 1202 -5.14245 1
gene 1 195 340 1.86572 0 1203 1.86572 1
gene 1 196 340 0.644475 0 1204 0.644475 1
gene 1 197 340 -0.885418 0 1205 -0.885418 1
gene 1 198 340 1.03366 0 1206 1.03366 1
gene 1 199 340 -0.420316 0 1207 -0.420316 1
gene 1 200 340 0.297815 0 1208 0.297815 1
gene 1 201 340 0.661641 0 1209 0.661641 1
gene 1 202 340 -2.36373 0 1210 -2.36373 1
gene 1 203 340 -2.63681 0 1211 -2.63681 1
gene 1 204 340 0.308237 0 1212 0.308237 1
gene 1 205 340 -6.99866 0 1213 -6.99866 1
gene 1 206 340 3.9066 0 1214 3.9066 1
gene 1 207 340 -8 0 1215 -8 1
gene 1 208 340 -0.559557 0 1216 -0.559557 1
gene 1 209 340 1.16779 0 1217 1.16779 1
gene 1 210 340 1.03114 0 1218 1.03114 1
gene 1 211 340 -8 0 1219 -8 1
gene 1 212 340 -2.23098 0 1220 -2.23098 1
gene 1 213 340 -5.63784 0 1221 -5.63784 1
gene 1 214 340 -2.55112 0 1222 -2.55112 1
gene 1 215 340 1.46413 0 1223 1.46413 1
gene 1 216 340 -7.53067 0 1224 -7.53067 1
gene 1 217 340 4.64258 0 1225 4.64258 1
gene 1 218 340 2.46139 0 1226 2.46139 1
gene 1 219 340 -0.355159 0 1227 -0.355159 1
gene 1 220 340 3.38458 0 1228 3.38458 1
gene 1 221 340 -1.39897 0 1229 -1.39897 1
gene 1 222 340 1.8569 0 1230 1.8569 1
gene 1 223 340 -0.749229 0 1231 -0.749229 1
gene 1 224 340 0.914487 0 1232 0.914487 1
gene 1 225 340 -2.57942 0 1233 -2.57942 1
gene 1 226 340 -2.20934 0 1234 -2.20934 1
gene 1 227 340 -1.39119 0 1235 -1.39119 1
gene 1 228 340 1.03587 0 1236 1.03587 1
gene 1 229 340 -4.58209 0 1237 -4.58209 1
gene 1 230 340 -1.39592 0 1238 -1.39592 1
gene 1 231 340 -2.89079 0 1239 -2.89079 1
gene 1 232 340 -1.96036 0 1240 -1.96036 1
gene 1 233 340 -4.69512 0 1241 -4.69512 1
gene 1 234 340 0.956069 0 1242 0.956069 1
gene 1 235 340 -1.36845 0 1243 -1.36845 1
gene 1 236 340 8 0 1244 8 1
gene 1 237 340 5.36142 0 1245 5.36142 1
gene 1 238 340 -2.01353 0 1246 -2.01353 1
gene 1 239 340 0.278474 0 1247 0.278474 1
gene 1 240 340 -0.84048 0 1248 -0.84048 1
gene 1 241 340 2.21953 0 1249 2.21953 1
gene 1 242 340 -0.574664 0 1250 -0.574664 1
gene 1 243 340 -2.1247 0 1251 -2.1247 1
gene 1 244 340 -1.66967 0 1252 -1.66967 1
gene 1 245 340 3.25869 0 1253 3.25869 1
gene 1 246 340 2.66472 0 1254 2.66472 1
gene 1 247 340 0.554674 0 1255 0.554674 1
gene 1 248 340 3.46019 0 1256 3.46019 1
gene 1 249 340 -8 0 1257 -8 1
gene 1 250 340 -1.68193 0 1258 -1.68193 1
gene 1 251 340 0.0807215 0 1259 0.0807215 1
gene 1 252 340 -3.62362 0 1260 -3.62362 1
gene 1 253 340 -2.79351 0 1261 -2.79351 1
gene 1 254 340 -1.23692 0 1262 -1.23692 1
gene 1 255 340 -5.31684 0 1263 -5.31684 1
gene 1 256 340 1.52933 0 1264 1.52933 1
gene 1 257 340 -2.92299 0 1265 -2.92299 1
gene 1 258 340 1.10385 0 1266 1.10385 1
gene 1 259 340 -4.35987 0 1267 -4.35987 1
gene 1 260 340 -6.46016 0 1268 -6.46016 1
gene 1 261 340 1.65891 0 1269 1.65891 1
gene 1 262 340 -2.85999 0 1270 -2.85999 1
gene 1 263 340 4.56977 0 1271 4.56977 1
gene 1 264 340 -0.139241 0 1272 -0.139241 1
gene 1 265 340 3.11715 0 1273 3.11715 1
gene 1 266 340 2.02086 0 1274 2.02086 1
gene 1 267 340 -0.0922651 0 1275 -0.0922651 1
gene 1 268 340 -1.22791 0 1276 -1.22791 1
gene 1 269 340 0.029809 0 1277 0.029809 1
gene 1 270 340 1.9673 0 1278 1.9673 1
gene 1 271 340 3.60218 0 1279 3.60218 1
gene 1 272 340 2.32902 0 1280 2.32902 1
gene 1 273 340 -6.09699 0 1281 -6.09699 1
gene 1 274 340 4.11817 0 1282 4.11817 1
gene 1 275 340 -6.2111 0 1283 -6.2111 1
gene 1 276 340 -5.91883 0 1284 -5.91883 1
gene 1 277 340 0.655843 0 1285 0.655843 1
gene 1 278 340 3.63987 0 1286 3.63987 1
gene 1 279 340 5.40063 0 1287 5.40063 1
gene 1 280 340 0.72779 0 1288 0.72779 1
gene 1 281 340 2.16224 0 1289 2.16224 1
gene 1 282 340 -0.0594348 0 1290 -0.0594348 1
gene 1 283 340 -0.233467 0 1291 -0.233467 1
gene 1 284 340 -4.99973 0 1292 -4.99973 1
gene 1 285 340 -3.14661 0 1293 -3.14661 1
gene 1 286 340 1.08066 0 1294 1.08066 1
gene 1 287 340 0.131546 0 1295 0.131546 1
gene 1 288 340 -0.360897 0 1296 -0.360897 1
gene 1 289 340 -6.84194 0 1297 -6.84194 1
gene 1 290 340 1.91351 0 1298 1.91351 1
gene 1 291 340 6.42857 0 1299 6.42857 1
gene 1 292 340 8 0 1300 8 1
gene 1 293 340 -2.01281 0 1301 -2.01281 1
gene 1 294 340 -2.03589 0 1302 -2.03589 1
gene 1 295 340 4.97513 0 1303 4.97513 1
gene 1 296 340 5.21043 0 1304 5.21043 1
gene 1 297 340 -0.482345 0 1305 -0.482345 1
gene 1 298 340 -2.45888 0 1306 -2.45888 1
gene 1 299 340 -2.13904 0 1307 -2.13904 1
gene 1 300 340 -6.23443 0 1308 -6.23443 1
gene 1 301 340 0.172201 0 1309 0.172201 1
gene 1 302 340 2.64785 0 1310 2.64785 1
gene 1 303 340 -0.0444044 0 1311 -0.0444044 1
gene 1 304 340 6.71377 0 1312 6.71377 1
gene 1 305 340 -2.80061 0 1313 -2.80061 1
gene 1 306 340 5.73821 0 1314 5.73821 1
gene 1 307 340 5.98407 0 1315 5.98407 1
gene 1 308 340 7.09903 0 1316 7.09903 1
gene 1 309 340 5.66454 0 1317 5.66454 1
gene 1 310 340 6.26037 0 1318 6.26037 1
gene 1 311 340 6.04926 0 1319 6.04926 1
gene 1 312 340 0.307215 0 1320 0.307215 1
gene 1 313 340 -4.73586 0 1321 -4.73586 1
gene 1 314 340 -4.03005 0 1322 -4.03005 1
gene 1 315 340 -1.36006 0 1323 -1.36006 1
gene 1 316 340 4.5806 0 1324 4.5806 1
gene 1 317 340 -0.440382 0 1325 -0.440382 1
gene 1 318 340 -1.50975 0 1326 -1.50975 1
gene 1 319 340 7.43468 0 1327 7.43468 1
gene 1 320 340 -0.00656148 0 1328 -0.00656148 1
gene 1 321 340 -0.107349 0 1329 -0.107349 1
gene 1 322 340 -4.47671 0 1330 -4.47671 1
gene 1 323 340 -1.592 0 1331 -1.592 1
gene 1 324 340 0.822985 0 1332 0.822985 1
gene 1 325 340 3.33888 0 1333 3.33888 1
gene 1 326 340 2.95967 0 1334 2.95967 1
gene 1 327 340 -3.09641 0 1335 -3.09641 1
gene 1 328 340 5.67037 0 1336 5.67037 1
gene 1 329 340 -1.96341 0 1337 -1.96341 1
gene 1 330 340 -0.173574 0 1338 -0.173574 1
gene 1 331 340 -0.391552 0 1339 -0.391552 1
gene 1 332 340 -3.2606 0 1340 -3.2606 1
gene 1 333 340 4.53574 0 1341 4.53574 1
gene 1 334 340 4.68543 0 1342 4.68543 1
gene 1 335 340 0.0943785 0 1343 0.0943785 1
gene 1 336 340 0.524842 0 1344 0.524842 1
gene 1 1 341 8 0 1345 8 1
gene 1 2 341 8 0 1346 8 1
gene 1 3 341 2.14671 0 1347 2.14671 1
gene 1 4 341 -1.33647 0 1348 -1.33647 1
gene 1 5 341 4.83102 0 1349 4.83102 1
gene 1 6 341 -2.61139 0 1350 -2.61139 1
gene 1 7 341 2.6114 0 1351 2.6114 1
gene 1 8 341 -2.2351 0 1352 -2.2351 1
gene 1 9 341 1.77351 0 1353 1.77351 1
gene 1 10 341 -0.443434 0 1354 -0.443434 1
gene 1 11 341 0.786309 0 1355 0.786309 1
gene 1 12 341 -2.66848 0 1356 -2.66848 1
gene 1 13 341 -5.78219 0 1357 -5.78219 1
gene 1 14 341 -5.44481 0 1358 -5.44481 1
gene 1 15 341 1.23157 0 1359 1.23157 1
gene 1 16 341 -1.94716 0 1360 -1.94716 1
gene 1 17 341 2.64679 0 1361 2.64679 1
gene 1 18 341 -6.62816 0 1362 -6.62816 1
gene 1 19 341 -1.72018 0 1363 -1.72018 1
gene 1 20 341 -0.792947 0 1364 -0.792947 1
gene 1 21 341 -0.353862 0 1365 -0.353862 1
gene 1 22 341 2.11196 0 1366 2.11196 1
gene 1 23 341 1.03725 0 1367 1.03725 1
gene 1 24 341 -1.72819 0 1368 -1.72819 1
gene 1 25 341 -8 0 1369 -8 1
gene 1 26 341 8 0 1370 8 1
gene 1 27 341 -1.61809 0 1371 -1.61809 1
gene 1 28 341 -2.36259 0 1372 -2.36259 1
gene 1 29 341 -0.99559 0 1373 -0.99559 1
gene 1 30 341 2.98456 0 1374 2.98456 1
gene 1 31 341 -5.19662 0 1375 -5.19662 1
gene 1 32 341 -0.414747 0 1376 -0.414747 1
gene 1 33 341 0.147176 0 1377 0.147176 1
gene 1 34 341 7.35199 0 1378 7.35199 1
gene 1 35 341 4.61615 0 1379 4.61615 1
gene 1 36 341 -4.41527 0 1380 -4.41527 1
gene 1 37 341 -2.60369 0 1381 -2.60369 1
gene 1 38 341 6.79482 0 1382 6.79482 1
gene 1 39 341 -4.18672 0 1383 -4.18672 1
gene 1 40 341 -1.64939 0 1384 -1.64939 1
gene 1 41 341 -0.645482 0 1385 -0.645482 1
gene 1 42 341 1.51648 0 1386 1.51648 1
gene 1 43 341 0.351039 0 1387 0.351039 1
gene 1 44 341 -2.937 0 1388 -2.937 1
gene 1 45 341 -1.21212 0 1389 -1.21212 1
gene 1 46 341 -3.155 0 1390 -3.155 1
gene 1 47 341 4.41849 0 1391 4.41849 1
gene 1 48 341 -6.22654 0 1392 -6.22654 1
gene 1 49 341 0.188757 0 1393 0.188757 1
gene 1 50 341 5.48944 0 1394 5.48944 1
gene 1 51 341 5.70101 0 1395 5.70101 1
gene 1 52 341 3.76194 0 1396 3.76194 1
gene 1 53 341 -2.91292 0 1397 -2.91292 1
gene 1 54 341 -4.09764 0 1398 -4.09764 1
gene 1 55 341 -1.55911 0 1399 -1.55911 1
gene 1 56 341 -0.136319 0 1400 -0.136319 1
gene 1 57 341 1.685 0 1401 1.685 1
gene 1 58 341 -0.64272 0 1402 -0.64272 1
gene 1 59 341 1.59413 0 1403 1.59413 1
gene 1 60 341 -5.66088 0 1404 -5.66088 1
gene 1 61 341 -3.42647 0 1405 -3.42647 1
gene 1 62 341 -0.169073 0 1406 -0.169073 1
gene 1 63 341 3.10854 0 1407 3.10854 1
gene 1 64 341 3.97086 0 1408 3.97086 1
gene 1 65 341 -1.46657 0 1409 -1.46657 1
gene 1 66 341 2.72111 0 1410 2.72111 1
gene 1 67 341 0.80266 0 1411 0.80266 1
gene 1 68 341 8 0 1412 8 1
gene 1 69 341 0.723319 0 1413 0.723319 1
gene 1 70 341 -8 0 1414 -8 1
gene 1 71 341 -3.19742 0 1415 -3.19742 1
gene 1 72 341 -4.6939 0 1416 -4.6939 1
gene 1 73 341 -2.33942 0 1417 -2.33942 1
gene 1 74 341 -0.274056 0 1418 -0.274056 1
gene 1 75 341 -3.02492 0 1419 -3.02492 1
gene 1 76 341 6.80253 0 1420 6.80253 1
gene 1 77 341 0.283212 0 1421 0.283212 1
gene 1 78 341 -7.93428 0 1422 -7.93428 1
gene 1 79 341 -7.6867 0 1423 -7.6867 1
gene 1 80 341 2.84693 0 1424 2.84693 1
gene 1 81 341 -0.954009 0 1425 -0.954009 1
gene 1 82 341 0.280541 0 1426 0.280541 1
gene 1 83 341 -1.33168 0 1427 -1.33168 1
gene 1 84 341 5.38331 0 1428 5.38331 1
gene 1 85 341 -3.72326 0 1429 -3.72326 1
gene 1 86 341 -1.24761 0 1430 -1.24761 1
gene 1 87 341 -3.29605 0 1431 -3.29605 1
gene 1 88 341 6.14696 0 1432 6.14696 1
gene 1 89 341 -5.81362 0 1433 -5.81362 1
gene 1 90 341 -8 0 1434 -8 1
gene 1 91 341 -7.6727 0 1435 -7.6727 1
gene 1 92 341 0.0806452 0 1436 0.0806452 1
gene 1 93 341 1.52715 0 1437 1.52715 1
gene 1 94 341 1.89611 0 1438 1.89611 1
gene 1 95 341 2.31182 0 1439 2.31182 1
gene 1 96 341 1.11844 0 1440 1.11844 1
gene 1 97 341 8 0 1441 8 1
gene 1 98 341 -3.0591 0 1442 -3.0591 1
gene 1 99 341 -2.50092 0 1443 -2.50092 1
gene 1 100 341 1.50563 0 1444 1.50563 1
gene 1 101 341 3.08931 0 1445 3.08931 1
gene 1 102 341 3.82847 0 1446 3.82847 1
gene 1 103 341 5.01396 0 1447 5.01396 1
gene 1 104 341 4.18676 0 1448 4.18676 1
gene 1 105 341 -4.25909 0 1449 -4.25909 1
gene 1 106 341 7.00342 0 1450 7.00342 1
gene 1 107 341 1.4317 0 1451 1.4317 1
gene 1 108 341 6.16237 0 1452 6.16237 1
gene 1 109 341 -3.6418 0 1453 -3.6418 1
gene 1 110 341 1.85021 0 1454 1.85021 1
gene 1 111 341 -0.490349 0 1455 -0.490349 1
gene 1 112 341 -5.9302 0 1456 -5.9302 1
gene 1 113 341 6.50388 0 1457 6.50388 1
gene 1 114 341 -2.48625 0 1458 -2.48625 1
gene 1 115 341 -0.0740074 0 1459 -0.0740074 1
gene 1 116 341 4.80226 0 1460 4.80226 1
gene 1 117 341 -4.07964 0 1461 -4.07964 1
gene 1 118 341 -1.97264 0 1462 -1.97264 1
gene 1 119 341 0.539872 0 1463 0.539872 1
gene 1 120 341 -3.24682 0 1464 -3.24682 1
gene 1 121 341 -0.211417 0 1465 -0.211417 1
gene 1 122 341 -2.19901 0 1466 -2.19901 1
gene 1 123 341 0.130924 0 1467 0.130924 1
gene 1 124 341 -6.18415 0 1468 -6.18415 1
gene 1 125 341 0.18746 0 1469 0.18746 1
gene 1 126 341 1.29032 0 1470 1.29032 1
gene 1 127 341 3.7756 0 1471 3.7756 1
gene 1 128 341 -3.71105 0 1472 -3.71105 1
gene 1 129 341 -2.17071 0 1473 -2.17071 1
gene 1 130 341 0.610204 0 1474 0.610204 1
gene 1 131 341 6.74696 0 1475 6.74696 1
gene 1 132 341 5.9125 0 1476 5.9125 1
gene 1 133 341 -0.107883 0 1477 -0.107883 1
gene 1 134 341 3.33224 0 1478 3.33224 1
gene 1 135 341 0.835501 0 1479 0.835501 1
gene 1 136 341 1.29872 0 1480 1.29872 1
gene 1 137 341 1.50456 0 1481 1.50456 1
gene 1 138 341 -7.69883 0 1482 -7.69883 1
gene 1 139 341 -2.01643 0 1483 -2.01643 1
gene 1 140 341 -1.56632 0 1484 -1.56632 1
gene 1 141 341 2.68128 0 1485 2.68128 1
gene 1 142 341 2.11374 0 1486 2.11374 1
gene 1 143 341 -1.12279 0 1487 -1.12279 1
gene 1 144 341 2.22732 0 1488 2.22732 1
gene 1 145 341 1.79478 0 1489 1.79478 1
gene 1 146 341 -3.38466 0 1490 -3.38466 1
gene 1 147 341 0.715354 0 1491 0.715354 1
gene 1 148 341 -5.5813 0 1492 -5.5813 1
gene 1 149 341 -5.48508 0 1493 -5.48508 1
gene 1 150 341 -5.9032 0 1494 -5.9032 1
gene 1 151 341 -3.93307 0 1495 -3.93307 1
gene 1 152 341 5.86035 0 1496 5.86035 1
gene 1 153 341 2.62406 0 1497 2.62406 1
gene 1 154 341 -4.16402 0 1498 -4.16402 1
gene 1 155 341 1.21812 0 1499 1.21812 1
gene 1 156 341 2.61261 0 1500 2.61261 1
gene 1 157 341 1.9702 0 1501 1.9702 1
gene 1 158 341 -4.12328 0 1502 -4.12328 1
gene 1 159 341 -5.18647 0 1503 -5.18647 1
gene 1 160 341 4.17058 0 1504 4.17058 1
gene 1 161 341 -7.54418 0 1505 -7.54418 1
gene 1 162 341 3.8226 0 1506 3.8226 1
gene 1 163 341 -1.35973 0 1507 -1.35973 1
gene 1 164 341 -3.04903 0 1508 -3.04903 1
gene 1 165 341 3.95521 0 1509 3.95521 1
gene 1 166 341 -3.91154 0 1510 -3.91154 1
gene 1 167 341 3.03049 0 1511 3.03049 1
gene 1 168 341 3.78819 0 1512 3.78819 1
gene 1 169 341 -0.683687 0 1513 -0.683687 1
gene 1 170 341 -3.5815 0 1514 -3.5815 1
gene 1 171 341 -1.28773 0 1515 -1.28773 1
gene 1 172 341 -5.19037 0 1516 -5.19037 1
gene 1 173 341 1.08842 0 1517 1.08842 1
gene 1 174 341 -0.190512 0 1518 -0.190512 1
gene 1 175 341 0.631046 0 1519 0.631046 1
gene 1 176 341 0.954772 0 1520 0.954772 1
gene 1 177 341 -1.1079 0 1521 -1.1079 1
gene 1 178 341 -5.72077 0 1522 -5.72077 1
gene 1 179 341 1.94548 0 1523 1.94548 1
gene 1 180 341 0.706961 0 1524 0.706961 1
gene 1 181 341 2.13312 0 1525 2.13312 1
gene 1 182 341 5.82118 0 1526 5.82118 1
gene 1 183 341 7.39528 0 1527 7.39528 1
gene 1 184 341 1.26993 0 1528 1.26993 1
gene 1 185 341 0.604167 0 1529 0.604167 1
gene 1 186 341 3.32038 0 1530 3.32038 1
gene 1 187 341 2.41273 0 1531 2.41273 1
gene 1 188 341 -3.0942 0 1532 -3.0942 1
gene 1 189 341 2.54136 0 1533 2.54136 1
gene 1 190 341 -7.63187 0 1534 -7.63187 1
gene 1 191 341 -2.0083 0 1535 -2.0083 1
gene 1 192 341 -6.37779 0 1536 -6.37779 1
gene 1 193 341 -5.7787 0 1537 -5.7787 1
gene 1 194 341 1.25874 0 1538 1.25874 1
gene 1 195 341 -2.38495 0 1539 -2.38495 1
gene 1 196 341 6.2593 0 1540 6.2593 1
gene 1 197 341 3.50299 0 1541 3.50299 1
gene 1 198 341 2.10753 0 1542 2.10753 1
gene 1 199 341 -0.713294 0 1543 -0.713294 1
gene 1 200 341 -0.557802 0 1544 -0.557802 1
gene 1 201 341 -7.11814 0 1545 -7.11814 1
gene 1 202 341 -5.99615 0 1546 -5.99615 1
gene 1 203 341 -0.692999 0 1547 -0.692999 1
gene 1 204 341 3.47617 0 1548 3.47617 1
gene 1 205 341 -2.6001 0 1549 -2.6001 1
gene 1 206 341 -0.687429 0 1550 -0.687429 1
gene 1 207 341 4.26382 0 1551 4.26382 1
gene 1 208 341 0.780206 0 1552 0.780206 1
gene 1 209 341 -0.355235 0 1553 -0.355235 1
gene 1 210 341 2.52651 0 1554 2.52651 1
gene 1 211 341 -5.54975 0 1555 -5.54975 1
gene 1 212 341 4.42776 0 1556 4.42776 1
gene 1 213 341 3.63804 0 1557 3.63804 1
gene 1 214 341 -0.778397 0 1558 -0.778397 1
gene 1 215 341 2.46429 0 1559 2.46429 1
gene 1 216 341 2.15247 0 1560 2.15247 1
gene 1 217 341 -3.2963 0 1561 -3.2963 1
gene 1 218 341 -7.32015 0 1562 -7.32015 1
gene 1 219 341 -3.59104 0 1563 -3.59104 1
gene 1 220 341 5.18586 0 1564 5.18586 1
gene 1 221 341 -3.22947 0 1565 -3.22947 1
gene 1 222 341 -8 0 1566 -8 1
gene 1 223 341 1.02504 0 1567 1.02504 1
gene 1 224 341 0.0557726 0 1568 0.0557726 1
gene 1 225 341 0.42909 0 1569 0.42909 1
gene 1 226 341 -3.52422 0 1570 -3.52422 1
gene 1 227 341 -0.497681 0 1571 -0.497681 1
gene 1 228 341 -0.648595 0 1572 -0.648595 1
gene 1 229 341 2.87294 0 1573 2.87294 1
gene 1 230 341 -5.46479 0 1574 -5.46479 1
gene 1 231 341 -1.78396 0 1575 -1.78396 1
gene 1 232 341 -1.97926 0 1576 -1.97926 1
gene 1 233 341 -0.0798822 0 1577 -0.0798822 1
gene 1 234 341 0.462203 0 1578 0.462203 1
gene 1 235 341 6.17563 0 1579 6.17563 1
gene 1 236 341 1.20823 0 1580 1.20823 1
gene 1 237 341 -5.43275 0 1581 -5.43275 1
gene 1 238 341 2.37968 0 1582 2.37968 1
gene 1 239 341 2.93909 0 1583 2.93909 1
gene 1 240 341 -6.1816 0 1584 -6.1816 1
gene 1 241 341 -3.45286 0 1585 -3.45286 1
gene 1 242 341 -5.65416 0 1586 -5.65416 1
gene 1 243 341 1.30909 0 1587 1.30909 1
gene 1 244 341 0.985366 0 1588 0.985366 1
gene 1 245 341 2.06877 0 1589 2.06877 1
gene 1 246 341 -2.43042 0 1590 -2.43042 1
gene 1 247 341 -2.80839 0 1591 -2.80839 1
gene 1 248 341 8 0 1592 8 1
gene 1 249 341 2.56294 0 1593 2.56294 1
gene 1 250 341 -5.42741 0 1594 -5.42741 1
gene 1 251 341 7.29896 0 1595 7.29896 1
gene 1 252 341 -2.53876 0 1596 -2.53876 1
gene 1 253 341 0.76014 0 1597 0.76014 1
gene 1 254 341 -3.67835 0 1598 -3.67835 1
gene 1 255 341 -0.0896252 0 1599 -0.0896252 1
gene 1 256 341 -3.94719 0 1600 -3.94719 1
gene 1 257 341 -6.68325 0 1601 -6.68325 1
gene 1 258 341 0.536973 0 1602 0.536973 1
gene 1 259 341 -5.20333 0 1603 -5.20333 1
gene 1 260 341 2.9408 0 1604 2.9408 1
gene 1 261 341 1.76603 0 1605 1.76603 1
gene 1 262 341 -6.21381 0 1606 -6.21381 1
gene 1 263 341 -1.26232 0 1607 -1.26232 1
gene 1 264 341 -2.10799 0 1608 -2.10799 1
gene 1 265 341 4.51783 0 1609 4.51783 1
gene 1 266 341 2.80758 0 1610 2.80758 1
gene 1 267 341 -1.93034 0 1611 -1.93034 1
gene 1 268 341 1.88958 0 1612 1.88958 1
gene 1 269 341 7.5338 0 1613 7.5338 1
gene 1 270 341 -2.73247 0 1614 -2.73247 1
gene 1 271 341 6.70726 0 1615 6.70726 1
gene 1 272 341 7.84555 0 1616 7.84555 1
gene 1 273 341 5.6179 0 1617 5.6179 1
gene 1 274 341 -2.47635 0 1618 -2.47635 1
gene 1 275 341 5.21406 0 1619 5.21406 1
gene 1 276 341 -1.79434 0 1620 -1.79434 1
gene 1 277 341 -0.720923 0 1621 -0.720923 1
gene 1 278 341 -5.68705 0 1622 -5.68705 1
gene 1 279 341 -4.76615 0 1623 -4.76615 1
gene 1 280 341 0.610141 0 1624 0.610141 1
gene 1 281 341 -5.93418 0 1625 -5.93418 1
gene 1 282 341 -7.32487 0 1626 -7.32487 1
gene 1 283 341 -0.4916 0 1627 -0.4916 1
gene 1 284 341 1.64848 0 1628 1.64848 1
gene 1 285 341 4.84115 0 1629 4.84115 1
gene 1 286 341 1.75382 0 1630 1.75382 1
gene 1 287 341 -3.86715 0 1631 -3.86715 1
gene 1 288 341 2.4237 0 1632 2.4237 1
gene 1 289 341 -3.17437 0 1633 -3.17437 1
gene 1 290 341 2.27948 0 1634 2.27948 1
gene 1 291 341 2.07434 0 1635 2.07434 1
gene 1 292 341 -0.0305185 0 1636 -0.0305185 1
gene 1 293 341 0.493103 0 1637 0.493103 1
gene 1 294 341 -3.83076 0 1638 -3.83076 1
gene 1 295 341 -2.97037 0 1639 -2.97037 1
gene 1 296 341 5.47459 0 1640 5.47459 1
gene 1 297 341 -6.33068 0 1641 -6.33068 1
gene 1 298 341 2.21847 0 1642 2.21847 1
gene 1 299 341 8 0 1643 8 1
gene 1 300 341 0.587786 0 1644 0.587786 1
gene 1 301 341 6.36126 0 1645 6.36126 1
gene 1 302 341 -3.84622 0 1646 -3.84622 1
gene 1 303 341 1.592 0 1647 1.592 1
gene 1 304 341 1.00902 0 1648 1.00902 1
gene 1 305 341 -3.89264 0 1649 -3.89264 1
gene 1 306 341 0.838076 0 1650 0.838076 1
gene 1 307 341 1.58444 0 1651 1.58444 1
gene 1 308 341 1.36372 0 1652 1.36372 1
gene 1 309 341 5.90185 0 1653 5.90185 1
gene 1 310 341 5.18494 0 1654 5.18494 1
gene 1 311 341 7.17212 0 1655 7.17212 1
gene 1 312 341 -1.42604 0 1656 -1.42604 1
gene 1 313 341 5.30723 0 1657 5.30723 1
gene 1 314 341 5.06569 0 1658 5.06569 1
gene 1 315 341 -2.94038 0 1659 -2.94038 1
gene 1 316 341 0.865886 0 1660 0.865886 1
gene 1 317 341 0.819079 0 1661 0.819079 1
gene 1 318 341 7.87342 0 1662 7.87342 1
gene 1 319 341 8 0 1663 8 1
gene 1 320 341 4.60616 0 1664 4.60616 1
gene 1 321 341 2.99516 0 1665 2.99516 1
gene 1 322 341 -4.17867 0 1666 -4.17867 1
gene 1 323 341 3.38 0 1667 3.38 1
gene 1 324 341 4.25497 0 1668 4.25497 1
gene 1 325 341 5.28558 0 1669 5.28558 1
gene 1 326 341 -0.559091 0 1670 -0.559091 1
gene 1 327 341 2.91096 0 1671 2.91096 1
gene 1 328 341 -1.65662 0 1672 -1.65662 1
gene 1 329 341 1.03999 0 1673 1.03999 1
gene 1 330 341 2.17605 0 1674 2.17605 1
gene 1 331 341 -6.9906 0 1675 -6.9906 1
gene 1 332 341 -7.06621 0 1676 -7.06621 1
gene 1 333 341 2.0349 0 1677 2.0349 1
gene 1 334 341 3.0417 0 1678 3.0417 1
gene 1 335 341 6.52374 0 1679 6.52374 1
gene 1 336 341 2.28965 0 1680 2.28965 1
gene 1 1 342 4.76025 0 1681 4.76025 1
gene 1 2 342 -5.69781 0 1682 -5.69781 1
gene 1 3 342 2.0114 0 1683 2.0114 1
gene 1 4 342 4.91 0 1684 4.91 1
gene 1 5 342 -0.36401 0 1685 -0.36401 1
gene 1 6 342 1.77587 0 1686 1.77587 1
gene 1 7 342 6.02382 0 1687 6.02382 1
gene 1 8 342 0.504852 0 1688 0.504852 1
gene 1 9 342 2.12149 0 1689 2.12149 1
gene 1 10 342 -2.5885 0 1690 -2.5885 1
gene 1 11 342 2.28089 0 1691 2.28089 1
gene 1 12 342 -4.82665 0 1692 -4.82665 1
gene 1 13 342 -1.87895 0 1693 -1.87895 1
gene 1 14 342 -3.6227 0 1694 -3.6227 1
gene 1 15 342 -1.51799 0 1695 -1.51799 1
gene 1 16 342 8 0 1696 8 1
gene 1 17 342 -0.465392 0 1697 -0.465392 1
gene 1 18 342 -5.50958 0 1698 -5.50958 1
gene 1 19 342 -4.68993 0 1699 -4.68993 1
gene 1 20 342 -6.48064 0 1700 -6.48064 1
gene 1 21 342 1.65403 0 1701 1.65403 1
gene 1 22 342 3.034 0 1702 3.034 1
gene 1 23 342 5.38458 0 1703 5.38458 1
gene 1 24 342 -5.52873 0 1704 -5.52873 1
gene 1 25 342 -2.85112 0 1705 -2.85112 1
gene 1 26 342 -1.63648 0 1706 -1.63648 1
gene 1 27 342 3.18789 0 1707 3.18789 1
gene 1 28 342 5.85493 0 1708 5.85493 1
gene 1 29 342 -2.16167 0 1709 -2.16167 1
gene 1 30 342 4.51346 0 1710 4.51346 1
gene 1 31 342 4.10591 0 1711 4.10591 1
gene 1 32 342 -1.0847 0 1712 -1.0847 1
gene 1 33 342 -0.573138 0 1713 -0.573138 1
gene 1 34 342 -1.64975 0 1714 -1.64975 1
gene 1 35 342 0.584429 0 1715 0.584429 1
gene 1 36 342 2.47513 0 1716 2.47513 1
gene 1 37 342 0.321833 0 1717 0.321833 1
gene 1 38 342 -4.00617 0 1718 -4.00617 1
gene 1 39 342 1.93457 0 1719 1.93457 1
gene 1 40 342 2.26318 0 1720 2.26318 1
gene 1 41 342 4.66097 0 1721 4.66097 1
gene 1 42 342 -8 0 1722 -8 1
gene 1 43 342 2.68212 0 1723 2.68212 1
gene 1 44 342 -7.04695 0 1724 -7.04695 0
gene 1 45 342 3.45172 0 1725 3.45172 1
gene 1 46 342 0.603885 0 1726 0.603885 1
gene 1 47 342 -2.09693 0 1727 -2.09693 1
gene 1 48 342 5.66912 0 1728 5.66912 1
gene 1 49 342 -1.71491 0 1729 -1.71491 1
gene 1 50 342 -3.28768 0 1730 -3.28768 1
gene 1 51 342 -3.8992 0 1731 -3.8992 1
gene 1 52 342 -1.83081 0 1732 -1.83081 1
gene 1 53 342 -1.60436 0 1733 -1.60436 1
gene 1 54 342 -2.53365 0 1734 -2.53365 1
gene 1 55 342 -1.50788 0 1735 -1.50788 1
gene 1 56 342 1.21532 0 1736 1.21532 1
gene 1 57 342 -1.0551 0 1737 -1.0551 1
gene 1 58 342 1.39035 0 1738 1.39035 1
gene 1 59 342 -0.171209 0 1739 -0.171209 1
gene 1 60 342 1.43773 0 1740 1.43773 1
gene 1 61 342 4.82109 0 1741 4.82109 1
gene 1 62 342 3.57013 0 1742 3.57013 1
gene 1 63 342 1.22799 0 1743 1.22799 1
gene 1 64 342 -3.42499 0 1744 -3.42499 1
gene 1 65 342 -3.40373 0 1745 -3.40373 1
gene 1 66 342 -2.1717 0 1746 -2.1717 1
gene 1 67 342 0.696814 0 1747 0.696814 1
gene 1 68 342 0.00579852 0 1748 0.00579852 1
gene 1 69 342 -8 0 1749 -8 1
gene 1 70 342 4.44113 0 1750 4.44113 1
gene 1 71 342 -2.83052 0 1751 -2.83052 1
gene 1 72 342 -4.41334 0 1752 -4.41334 1
gene 1 73 342 -4.19686 0 1753 -4.19686 1
gene 1 74 342 6.70616 0 1754 6.70616 1
gene 1 75 342 -5.07447 0 1755 -5.07447 1
gene 1 76 342 -0.593814 0 1756 -0.593814 1
gene 1 77 342 8 0 1757 8 1
gene 1 78 342 5.44733 0 1758 5.44733 1
gene 1 79 342 -0.32281 0 1759 -0.32281 1
gene 1 80 342 0.0948363 0 1760 0.0948363 1
gene 1 81 342 5.72069 0 1761 5.72069 1
gene 1 82 342 -5.08785 0 1762 -5.08785 1
gene 1 83 342 3.43242 0 1763 3.43242 1
gene 1 84 342 -1.45718 0 1764 -1.45718 1
gene 1 85 342 -2.87473 0 1765 -2.87473 1
gene 1 86 342 7.44819 0 1766 7.44819 1
gene 1 87 342 -5.4516 0 1767 -5.4516 1
gene 1 88 342 -4.44994 0 1768 -4.44994 1
gene 1 89 342 2.46597 0 1769 2.46597 1
gene 1 90 342 -3.9658 0 1770 -3.9658 1
gene 1 91 342 7.76966 0 1771 7.76966 1
gene 1 92 342 -3.60469 0 1772 -3.60469 1
gene 1 93 342 0.891446 0 1773 0.891446 1
gene 1 94 342 -2.59304 0 1774 -2.59304 1
gene 1 95 342 -6.61115 0 1775 -6.61115 1
gene 1 96 342 2.9033 0 1776 2.9033 1
gene 1 97 342 -0.464721 0 1777 -0.464721 1
gene 1 98 342 1.42644 0 1778 1.42644 1
gene 1 99 342 6.79891 0 1779 6.79891 1
gene 1 100 342 -5.09075 0 1780 -5.09075 1
gene 1 101 342 3.80491 0 1781 3.80491 1
gene 1 102 342 -0.50119 0 1782 -0.50119 1
gene 1 103 342 1.23806 0 1783 1.23806 1
gene 1 104 342 1.704 0 1784 1.704 1
gene 1 105 342 -3.91282 0 1785 -3.91282 1
gene 1 106 342 -3.93788 0 1786 -3.93788 1
gene 1 107 342 -2.31979 0 1787 -2.31979 1
gene 1 108 342 -2.95064 0 1788 -2.95064 1
gene 1 109 342 -5.38388 0 1789 -5.38388 1
gene 1 110 342 -0.871685 0 1790 -0.871685 1
gene 1 111 342 -2.63199 0 1791 -2.63199 1
gene 1 112 342 -3.33628 0 1792 -3.33628 1
gene 1 113 342 -1.28368 0 1793 -1.28368 1
gene 1 114 342 4.75806 0 1794 4.75806 1
gene 1 115 342 4.1287 0 1795 4.1287 1
gene 1 116 342 -3.98885 0 1796 -3.98885 1
gene 1 117 342 -8 0 1797 -8 1
gene 1 118 342 5.88084 0 1798 5.88084 1
gene 1 119 342 5.65842 0 1799 5.65842 1
gene 1 120 342 -1.06815 0 1800 -1.06815 1
gene 1 121 342 -0.754028 0 1801 -0.754028 1
gene 1 122 342 -7.35351 0 1802 -7.35351 1
gene 1 123 342 -6.99759 0 1803 -6.99759 1
gene 1 124 342 -5.56825 0 1804 -5.56825 1
gene 1 125 342 2.43225 0 1805 2.43225 1
gene 1 126 342 -2.369 0 1806 -2.369 1
gene 1 127 342 -3.74065 0 1807 -3.74065 1
gene 1 128 342 1.00041 0 1808 1.00041 1
gene 1 129 342 2.91322 0 1809 2.91322 1
gene 1 130 342 0.195624 0 1810 0.195624 1
gene 1 131 342 1.74734 0 1811 1.74734 1
gene 1 132 342 -3.80177 0 1812 -3.80177 1
gene 1 133 342 -0.0456252 0 1813 -0.0456252 1
gene 1 134 342 3.79933 0 1814 3.79933 1
gene 1 135 342 -1.48991 0 1815 -1.48991 1
gene 1 136 342 -1.86956 0 1816 -1.86956 1
gene 1 137 342 5.41766 0 1817 5.41766 1
gene 1 138 342 -0.420927 0 1818 -0.420927 1
gene 1 139 342 -3.49628 0 1819 -3.49628 1
gene 1 140 342 2.49115 0 1820 2.49115 1
gene 1 141 342 -2.08491 0 1821 -2.08491 1
gene 1 142 342 -2.3037 0 1822 -2.3037 1
gene 1 143 342 0.949507 0 1823 0.949507 1
gene 1 144 342 4.21228 0 1824 4.21228 1
gene 1 145 342 -2.34001 0 1825 -2.34001 1
gene 1 146 342 2.39761 0 1826 2.39761 1
gene 1 147 342 -1.94845 0 1827 -1.94845 1
gene 1 148 342 -5.12024 0 1828 -5.12024 1
gene 1 149 342 -4.40268 0 1829 -4.40268 1
gene 1 150 342 2.6352 0 1830 2.6352 1
gene 1 151 342 3.74271 0 1831 3.74271 1
gene 1 152 342 -2.93191 0 1832 -2.93191 1
gene 1 153 342 0.343791 0 1833 0.343791 1
gene 1 154 342 0.617885 0 1834 0.617885 1
gene 1 155 342 -4.74548 0 1835 -4.74548 1
gene 1 156 342 -2.18682 0 1836 -2.18682 1
gene 1 157 342 -5.06256 0 1837 -5.06256 1
gene 1 158 342 0.323572 0 1838 0.323572 1
gene 1 159 342 -0.995437 0 1839 -0.995437 1
gene 1 160 342 2.73095 0 1840 2.73095 1
gene 1 161 342 2.81571 0 1841 2.81571 1
gene 1 162 342 -4.1556 0 1842 -4.1556 1
gene 1 163 342 1.9998 0 1843 1.9998 1
gene 1 164 342 6.24325 0 1844 6.24325 1
gene 1 165 342 0.173727 0 1845 0.173727 1
gene 1 166 342 0.680792 0 1846 0.680792 1
gene 1 167 342 3.71107 0 1847 3.71107 1
gene 1 168 342 -0.120853 0 1848 -0.120853 1
gene 1 169 342 2.43141 0 1849 2.43141 1
gene 1 170 342 -4.07599 0 1850 -4.07599 1
gene 1 171 342 2.70829 0 1851 2.70829 1
gene 1 172 342 1.65709 0 1852 1.65709 1
gene 1 173 342 -1.14031 0 1853 -1.14031 1
gene 1 174 342 1.41903 0 1854 1.41903 1
gene 1 175 342 -2.07152 0 1855 -2.07152 1
gene 1 176 342 -2.3272 0 1856 -2.3272 1
gene 1 177 342 -0.0721763 0 1857 -0.0721763 1
gene 1 178 342 1.25312 0 1858 1.25312 1
gene 1 179 342 -1.87239 0 1859 -1.87239 1
gene 1 180 342 -5.50523 0 1860 -5.50523 1
gene 1 181 342 -4.20995 0 1861 -4.20995 1
gene 1 182 342 -1.93533 0 1862 -1.93533 1
gene 1 183 342 4.42083 0 1863 4.42083 1
gene 1 184 342 -2.57355 0 1864 -2.57355 1
gene 1 185 342 2.43362 0 1865 2.43362 1
gene 1 186 342 -5.14353 0 1866 -5.14353 1
gene 1 187 342 -0.0287637 0 1867 -0.0287637 1
gene 1 188 342 1.74963 0 1868 1.74963 1
gene 1 189 342 -1.49953 0 1869 -1.49953 1
gene 1 190 342 -1.33236 0 1870 -1.33236 1
gene 1 191 342 -1.84599 0 1871 -1.84599 1
gene 1 192 342 0.194983 0 1872 0.194983 1
gene 1 193 342 0.844695 0 1873 0.844695 1
gene 1 194 342 0.0450148 0 1874 0.0450148 1
gene 1 195 342 1.22066 0 1875 1.22066 1
gene 1 196 342 1.37313 0 1876 1.37313 1
gene 1 197 342 0.0279244 0 1877 0.0279244 1
gene 1 198 342 3.49496 0 1878 3.49496 1
gene 1 199 342 -7.55138 0 1879 -7.55138 1
gene 1 200 342 2.68838 0 1880 2.68838 1
gene 1 201 342 1.02023 0 1881 1.02023 1
gene 1 202 342 7.08551 0 1882 7.08551 1
gene 1 203 342 -6.37005 0 1883 -6.37005 1
gene 1 204 342 1.49243 0 1884 1.49243 1
gene 1 205 342 -5.45259 0 1885 -5.45259 1
gene 1 206 342 2.9384 0 1886 2.9384 1
gene 1 207 342 2.15486 0 1887 2.15486 1
gene 1 208 342 0.54239 0 1888 0.54239 1
gene 1 209 342 0.835978 0 1889 0.835978 1
gene 1 210 342 -5.28469 0 1890 -5.28469 1
gene 1 211 342 1.43209 0 1891 1.43209 1
gene 1 212 342 4.59098 0 1892 4.59098 1
gene 1 213 342 -2.3162 0 1893 -2.3162 1
gene 1 214 342 -6.50443 0 1894 -6.50443 1
gene 1 215 342 3.1789 0 1895 3.1789 1
gene 1 216 342 7.7074 0 1896 7.7074 1
gene 1 217 342 1.52905 0 1897 1.52905 1
gene 1 218 342 -1.198 0 1898 -1.198 1
gene 1 219 342 0.686666 0 1899 0.686666 1
gene 1 220 342 8 0 1900 8 1
gene 1 221 342 7.2779 0 1901 7.2779 1
gene 1 222 342 -2.5673 0 1902 -2.5673 1
gene 1 223 342 -2.79206 0 1903 -2.79206 1
gene 1 224 342 4.23299 0 1904 4.23299 1
gene 1 225 342 4.00624 0 1905 4.00624 1
gene 1 226 342 6.97259 0 1906 6.97259 1
gene 1 227 342 -2.26844 0 1907 -2.26844 1
gene 1 228 342 0.269402 0 1908 0.269402 1
gene 1 229 342 -4.69298 0 1909 -4.69298 1
gene 1 230 342 -2.78512 0 1910 -2.78512 1
gene 1 231 342 1.37303 0 1911 1.37303 1
gene 1 232 342 -4.09482 0 1912 -4.09482 1
gene 1 233 342 -3.06246 0 1913 -3.06246 1
gene 1 234 342 0.704749 0 1914 0.704749 1
gene 1 235 342 7.92103 0 1915 7.92103 1
gene 1 236 342 -1.10617 0 1916 -1.10617 1
gene 1 237 342 1.2627 0 1917 1.2627 1
gene 1 238 342 1.26064 0 1918 1.26064 1
gene 1 239 342 -7.0304 0 1919 -7.0304 1
gene 1 240 342 -3.67824 0 1920 -3.67824 1
gene 1 241 342 3.8789 0 1921 3.8789 1
gene 1 242 342 8 0 1922 8 1
gene 1 243 342 -8 0 1923 -8 1
gene 1 244 342 -6.20869 0 1924 -6.20869 1
gene 1 245 342 4.79331 0 1925 4.79331 1
gene 1 246 342 -2.1868 0 1926 -2.1868 1
gene 1 247 342 1.29559 0 1927 1.29559 1
gene 1 248 342 -3.62835 0 1928 -3.62835 1
gene 1 249 342 1.21738 0 1929 1.21738 1
gene 1 250 342 -3.11734 0 1930 -3.11734 1
gene 1 251 342 -5.29054 0 1931 -5.29054 1
gene 1 252 342 1.46847 0 1932 1.46847 1
gene 1 253 342 -3.44073 0 1933 -3.44073 1
gene 1 254 342 1.39904 0 1934 1.39904 1
gene 1 255 342 -1.37158 0 1935 -1.37158 1
gene 1 256 342 -4.64522 0 1936 -4.64522 1
gene 1 257 342 -4.8928 0 1937 -4.8928 1
gene 1 258 342 3.1928 0 1938 3.1928 1
gene 1 259 342 -5.76768 0 1939 -5.76768 1
gene 1 260 342 -2.3571 0 1940 -2.3571 1
gene 1 261 342 -8 0 1941 -8 1
gene 1 262 342 -6.67557 0 1942 -6.67557 1
gene 1 263 342 -2.76757 0 1943 -2.76757 1
gene 1 264 342 -3.59249 0 1944 -3.59249 1
gene 1 265 342 2.42758 0 1945 2.42758 1
gene 1 266 342 1.90573 0 1946 1.90573 1
gene 1 267 342 0.725883 0 1947 0.725883 1
gene 1 268 342 2.2757 0 1948 2.2757 1
gene 1 269 342 4.794 0 1949 4.794 1
gene 1 270 342 -2.74651 0 1950 -2.74651 1
gene 1 271 342 2.59461 0 1951 2.59461 1
gene 1 272 342 -6.10088 0 1952 -6.10088 1
gene 1 273 342 3.3095 0 1953 3.3095 1
gene 1 274 342 3.45343 0 1954 3.45343 1
gene 1 275 342 4.05049 0 1955 4.05049 1
gene 1 276 342 -8 0 1956 -8 1
gene 1 277 342 0.993439 0 1957 0.993439 1
gene 1 278 342 1.15154 0 1958 1.15154 1
gene 1 279 342 2.59865 0 1959 2.59865 1
gene 1 280 342 -0.964034 0 1960 -0.964034 1
gene 1 281 342 -2.23403 0 1961 -2.23403 1
gene 1 282 342 0.238926 0 1962 0.238926 1
gene 1 283 342 3.22417 0 1963 3.22417 1
gene 1 284 342 0.105777 0 1964 0.105777 1
gene 1 285 342 3.4022 0 1965 3.4022 1
gene 1 286 342 -3.06543 0 1966 -3.06543 1
gene 1 287 342 4.2922 0 1967 4.2922 1
gene 1 288 342 -8 0 1968 -8 1
gene 1 289 342 4.95326 0 1969 4.95326 1
gene 1 290 342 0.263527 0 1970 0.263527 1
gene 1 291 342 -0.595035 0 1971 -0.595035 1
gene 1 292 342 7.3569 0 1972 7.3569 1
gene 1 293 342 3.36543 0 1973 3.36543 1
gene 1 294 342 3.57436 0 1974 3.57436 1
gene 1 295 342 -2.59178 0 1975 -2.59178 1
gene 1 296 342 4.11135 0 1976 4.11135 1
gene 1 297 342 5.69675 0 1977 5.69675 1
gene 1 298 342 2.8535 0 1978 2.8535 1
gene 1 299 342 -1.83905 0 1979 -1.83905 1
gene 1 300 342 0.260857 0 1980 0.260857 1
gene 1 301 342 -2.47642 0 1981 -2.47642 1
gene 1 302 342 -2.68337 0 1982 -2.68337 1
gene 1 303 342 -0.919141 0 1983 -0.919141 1
gene 1 304 342 -4.28297 0 1984 -4.28297 1
gene 1 305 342 1.2624 0 1985 1.2624 1
gene 1 306 342 2.50885 0 1986 2.50885 1
gene 1 307 342 -4.36438 0 1987 -4.36438 1
gene 1 308 342 3.52847 0 1988 3.52847 1
gene 1 309 342 6.23109 0 1989 6.23109 1
gene 1 310 342 7.7031 0 1990 7.7031 1
gene 1 311 342 6.42254 0 1991 6.42254 1
gene 1 312 342 3.50711 0 1992 3.50711 1
gene 1 313 342 8 0 1993 8 1
gene 1 314 342 -1.68615 0 1994 -1.68615 1
gene 1 315 342 -6.13124 0 1995 -6.13124 1
gene 1 316 342 -1.05904 0 1996 -1.05904 1
gene 1 317 342 -1.87643 0 1997 -1.87643 1
gene 1 318 342 -1.23135 0 1998 -1.23135 1
gene 1 319 342 4.34881 0 1999 4.34881 1
gene 1 320 342 0.42703 0 2000 0.42703 1
gene 1 321 342 -1.38058 0 2001 -1.38058 1
gene 1 322 342 -0.67069 0 2002 -0.67069 1
gene 1 323 342 0.0808741 0 2003 0.0808741 1
gene 1 324 342 1.97447 0 2004 1.97447 1
gene 1 325 342 0.155416 0 2005 0.155416 1
gene 1 326 342 0.14053 0 2006 0.14053 1
gene 1 327 342 0.312891 0 2007 0.312891 1
gene 1 328 342 -8 0 2008 -8 1
gene 1 329 342 -2.92711 0 2009 -2.92711 1
gene 1 330 342 -3.37381 0 2010 -3.37381 1
gene 1 331 342 -1.32801 0 2011 -1.32801 1
gene 1 332 342 1.70057 0 2012 1.70057 1
gene 1 333 342 5.90994 0 2013 5.90994 1
gene 1 334 342 -0.810114 0 2014 -0.810114 1
gene 1 335 342 6.14856 0 2015 6.14856 1
gene 1 336 342 -0.474563 0 2016 -0.474563 1
gene 1 1 343 1.01741 0 2017 1.01741 1
gene 1 2 343 2.39621 0 2018 2.39621 1
gene 1 3 343 4.44483 0 2019 4.44483 1
gene 1 4 343 -1.48556 0 2020 -1.48556 1
gene 1 5 343 -1.6377 0 2021 -1.6377 1
gene 1 6 343 -6.04808 0 2022 -6.04808 1
gene 1 7 343 -4.40886 0 2023 -4.40886 1
gene 1 8 343 -2.03612 0 2024 -2.03612 1
gene 1 9 343 -2.88606 0 2025 -2.88606 1
gene 1 10 343 -2.32078 0 2026 -2.32078 1
gene 1 11 343 4.03149 0 2027 4.03149 1
gene 1 12 343 -0.454039 0 2028 -0.454039 1
gene 1 13 343 -3.31431 0 2029 -3.31431 1
gene 1 14 343 -3.28547 0 2030 -3.28547 1
gene 1 15 343 -4.79127 0 2031 -4.79127 1
gene 1 16 343 -4.71839 0 2032 -4.71839 1
gene 1 17 343 0.904035 0 2033 0.904035 1
gene 1 18 343 1.69136 0 2034 1.69136 1
gene 1 19 343 1.7523 0 2035 1.7523 1
gene 1 20 343 1.29115 0 2036 1.29115 1
gene 1 21 343 4.69443 0 2037 4.69443 1
gene 1 22 343 4.41092 0 2038 4.41092 1
gene 1 23 343 4.15799 0 2039 4.15799 1
gene 1 24 343 -0.644704 0 2040 -0.644704 1
gene 1 25 343 4.15098 0 2041 4.15098 1
gene 1 26 343 0.361492 0 2042 0.361492 1
gene 1 27 343 3.75912 0 2043 3.75912 1
gene 1 28 343 -3.76988 0 2044 -3.76988 1
gene 1 29 343 2.30205 0 2045 2.30205 1
gene 1 30 343 -3.99831 0 2046 -3.99831 1
gene 1 31 343 -0.64441 0 2047 -0.64441 1
gene 1 32 343 -1.98286 0 2048 -1.98286 1
gene 1 33 343 -1.62801 0 2049 -1.62801 1
gene 1 34 343 5.77288 0 2050 5.77288 1
gene 1 35 343 1.3815 0 2051 1.3815 1
gene 1 36 343 -4.71787 0 2052 -4.71787 1
gene 1 37 343 0.399487 0 2053 0.399487 1
gene 1 38 343 0.292978 0 2054 0.292978 1
gene 1 39 343 -1.0905 0 2055 -1.0905 1
gene 1 40 343 -3.28204 0 2056 -3.28204 1
gene 1 41 343 -6.13735 0 2057 -6.13735 1
gene 1 42 343 1.78838 0 2058 1.78838 1
gene 1 43 343 4.83856 0 2059 4.83856 1
gene 1 44 343 -3.87084 0 2060 -3.87084 1
gene 1 45 343 -8 0 2061 -8 1
gene 1 46 343 1.86773 0 2062 1.86773 1
gene 1 47 343 -3.45244 0 2063 -3.45244 1
gene 1 48 343 -0.701209 0 2064 -0.701209 1
gene 1 49 343 1.93518 0 2065 1.93518 1
gene 1 50 343 -7.56775 0 2066 -7.56775 1
gene 1 51 343 3.55468 0 2067 3.55468 1
gene 1 52 343 -3.68881 0 2068 -3.68881 1
gene 1 53 343 4.31486 0 2069 4.31486 1
gene 1 54 343 2.03589 0 2070 2.03589 1
gene 1 55 343 -1.04183 0 2071 -1.04183 1
gene 1 56 343 1.13216 0 2072 1.13216 1
gene 1 57 343 -3.07169 0 2073 -3.07169 1
gene 1 58 343 -2.51885 0 2074 -2.51885 1
gene 1 59 343 -6.15719 0 2075 -6.15719 1
gene 1 60 343 4.75204 0 2076 4.75204 1
gene 1 61 343 -1.73902 0 2077 -1.73902 1
gene 1 62 343 -4.36493 0 2078 -4.36493 1
gene 1 63 343 -6.3525 0 2079 -6.3525 1
gene 1 64 343 -2.20927 0 2080 -2.20927 1
gene 1 65 343 4.38566 0 2081 4.38566 1
gene 1 66 343 1.64144 0 2082 1.64144 1
gene 1 67 343 2.41562 0 2083 2.41562 1
gene 1 68 343 -1.52623 0 2084 -1.52623 1
gene 1 69 343 2.59888 0 2085 2.59888 1
gene 1 70 343 -0.82561 0 2086 -0.82561 1
gene 1 71 343 -0.726951 0 2087 -0.726951 1
gene 1 72 343 3.02843 0 2088 3.02843 1
gene 1 73 343 -1.02565 0 2089 -1.02565 1
gene 1 74 343 3.69312 0 2090 3.69312 1
gene 1 75 343 1.02878 0 2091 1.02878 1
gene 1 76 343 6.20464 0 2092 6.20464 1
gene 1 77 343 -4.11115 0 2093 -4.11115 1
gene 1 78 343 -4.60646 0 2094 -4.60646 1
gene 1 79 343 4.29472 0 2095 4.29472 1
gene 1 80 343 2.15941 0 2096 2.15941 1
gene 1 81 343 8 0 2097 8 1
gene 1 82 343 -1.36448 0 2098 -1.36448 1
gene 1 83 343 -0.936079 0 2099 -0.936079 1
gene 1 84 343 -3.22413 0 2100 -3.22413 1
gene 1 85 343 -0.857898 0 2101 -0.857898 1
gene 1 86 343 -2.87286 0 2102 -2.87286 1
gene 1 87 343 -6.02988 0 2103 -6.02988 1
gene 1 88 343 0.846202 0 2104 0.846202 1
gene 1 89 343 -0.730613 0 2105 -0.730613 1
gene 1 90 343 8 0 2106 8 1
gene 1 91 343 0.222022 0 2107 0.222022 1
gene 1 92 343 0.439085 0 2108 0.439085 1
gene 1 93 343 6.36624 0 2109 6.36624 1
gene 1 94 343 1.91929 0 2110 1.91929 1
gene 1 95 343 -4.98123 0 2111 -4.98123 1
gene 1 96 343 -2.46391 0 2112 -2.46391 1
gene 1 97 343 6.39961 0 2113 6.39961 1
gene 1 98 343 3.79238 0 2114 3.79238 1
gene 1 99 343 -0.30633 0 2115 -0.30633 1
gene 1 100 343 3.38298 0 2116 3.38298 1
gene 1 101 343 0.22277 0 2117 0.22277 1
gene 1 102 343 2.00964 0 2118 2.00964 1
gene 1 103 343 -0.630741 0 2119 -0.630741 1
gene 1 104 343 -6.45337 0 2120 -6.45337 1
gene 1 105 343 4.86312 0 2121 4.86312 1
gene 1 106 343 -8 0 2122 -8 1
gene 1 107 343 5.73611 0 2123 5.73611 1
gene 1 108 343 0.843074 0 2124 0.843074 1
gene 1 109 343 -4.3605 0 2125 -4.3605 1
gene 1 110 343 -1.34907 0 2126 -1.34907 1
gene 1 111 343 -8 0 2127 -8 1
gene 1 112 343 -2.38636 0 2128 -2.38636 1
gene 1 113 343 -0.797906 0 2129 -0.797906 1
gene 1 114 343 -5.1516 0 2130 -5.1516 1
gene 1 115 343 0.254868 0 2131 0.254868 1
gene 1 116 343 0.579623 0 2132 0.579623 1
gene 1 117 343 -2.63298 0 2133 -2.63298 1
gene 1 118 343 -4.79697 0 2134 -4.79697 1
gene 1 119 343 2.36937 0 2135 2.36937 1
gene 1 120 343 -5.07099 0 2136 -5.07099 1
gene 1 121 343 3.16614 0 2137 3.16614 1
gene 1 122 343 -6.42277 0 2138 -6.42277 1
gene 1 123 343 2.71617 0 2139 2.71617 1
gene 1 124 343 -2.16285 0 2140 -2.16285 1
gene 1 125 343 2.58026 0 2141 2.58026 1
gene 1 126 343 0.468841 0 2142 0.468841 1
gene 1 127 343 8 0 2143 8 1
gene 1 128 343 0.317087 0 2144 0.317087 1
gene 1 129 343 -5.6576 0 2145 -5.6576 1
gene 1 130 343 -5.60984 0 2146 -5.60984 1
gene 1 131 343 -0.545289 0 2147 -0.545289 1
gene 1 132 343 -2.22571 0 2148 -2.22571 1
gene 1 133 343 5.31098 0 2149 5.31098 1
gene 1 134 343 1.6953 0 2150 1.6953 1
gene 1 135 343 4.08771 0 2151 4.08771 1
gene 1 136 343 3.7239 0 2152 3.7239 1
gene 1 137 343 -7.46902 0 2153 -7.46902 1
gene 1 138 343 -7.09707 0 2154 -7.09707 1
gene 1 139 343 1.71888 0 2155 1.71888 1
gene 1 140 343 1.53905 0 2156 1.53905 1
gene 1 141 343 -4.80125 0 2157 -4.80125 1
gene 1 142 343 3.15218 0 2158 3.15218 1
gene 1 143 343 -2.32849 0 2159 -2.32849 1
gene 1 144 343 -5.65683 0 2160 -5.65683 1
gene 1 145 343 1.13414 0 2161 1.13414 1
gene 1 146 343 2.14912 0 2162 2.14912 1
gene 1 147 343 -1.26301 0 2163 -1.26301 1
gene 1 148 343 -3.22078 0 2164 -3.22078 1
gene 1 149 343 -1.74398 0 2165 -1.74398 1
gene 1 150 343 4.0727 0 2166 4.0727 1
gene 1 151 343 1.46886 0 2167 1.46886 1
gene 1 152 343 -6.91903 0 2168 -6.91903 1
gene 1 153 343 1.95692 0 2169 1.95692 1
gene 1 154 343 -5.83133 0 2170 -5.83133 1
gene 1 155 343 1.82043 0 2171 1.82043 1
gene 1 156 343 6.02603 0 2172 6.02603 1
gene 1 157 343 -0.0244606 0 2173 -0.0244606 1
gene 1 158 343 2.22068 0 2174 2.22068 1
gene 1 159 343 1.07921 0 2175 1.07921 1
gene 1 160 343 -1.16321 0 2176 -1.16321 1
gene 1 161 343 1.7304 0 2177 1.7304 1
gene 1 162 343 -2.57851 0 2178 -2.57851 1
gene 1 163 343 0.974151 0 2179 0.974151 1
gene 1 164 343 0.483654 0 2180 0.483654 1
gene 1 165 343 7.16601 0 2181 7.16601 1
gene 1 166 343 6.38435 0 2182 6.38435 1
gene 1 167 343 -1.80342 0 2183 -1.80342 1
gene 1 168 343 5.00388 0 2184 5.00388 1
gene 1 169 343 -2.62924 0 2185 -2.62924 1
gene 1 170 343 -0.209204 0 2186 -0.209204 1
gene 1 171 343 -2.56218 0 2187 -2.56218 1
gene 1 172 343 -1.15406 0 2188 -1.15406 1
gene 1 173 343 7.63157 0 2189 7.63157 1
gene 1 174 343 -0.351955 0 2190 -0.351955 1
gene 1 175 343 -4.44328 0 2191 -4.44328 1
gene 1 176 343 1.06243 0 2192 1.06243 1
gene 1 177 343 3.6886 0 2193 3.6886 1
gene 1 178 343 1.28162 0 2194 1.28162 1
gene 1 179 343 -2.59697 0 2195 -2.59697 1
gene 1 180 343 -3.00684 0 2196 -3.00684 1
gene 1 181 343 -5.14321 0 2197 -5.14321 1
gene 1 182 343 0.912885 0 2198 0.912885 1
gene 1 183 343 -8 0 2199 -8 1
gene 1 184 343 5.00259 0 2200 5.00259 1
gene 1 185 343 -0.312738 0 2201 -0.312738 1
gene 1 186 343 -1.16131 0 2202 -1.16131 1
gene 1 187 343 2.89116 0 2203 2.89116 1
gene 1 188 343 4.31153 0 2204 4.31153 1
gene 1 189 343 -4.33668 0 2205 -4.33668 1
gene 1 190 343 -2.5045 0 2206 -2.5045 1
gene 1 191 343 2.32032 0 2207 2.32032 1
gene 1 192 343 0.430845 0 2208 0.430845 1
gene 1 193 343 -1.03798 0 2209 -1.03798 1
gene 1 194 343 -2.85607 0 2210 -2.85607 1
gene 1 195 343 2.72111 0 2211 2.72111 1
gene 1 196 343 -4.55214 0 2212 -4.55214 1
gene 1 197 343 -2.62215 0 2213 -2.62215 1
gene 1 198 343 0.909528 0 2214 0.909528 1
gene 1 199 343 -0.851543 0 2215 -0.851543 1
gene 1 200 343 1.85897 0 2216 1.85897 1
gene 1 201 343 0.935713 0 2217 0.935713 1
gene 1 202 343 -6.87056 0 2218 -6.87056 1
gene 1 203 343 -6.68004 0 2219 -6.68004 1
gene 1 204 343 -2.58583 0 2220 -2.58583 1
gene 1 205 343 -7.01588 0 2221 -7.01588 1
gene 1 206 343 4.61394 0 2222 4.61394 1
gene 1 207 343 -2.17071 0 2223 -2.17071 1
gene 1 208 343 -3.69785 0 2224 -3.69785 1
gene 1 209 343 -5.39933 0 2225 -5.39933 1
gene 1 210 343 -0.354778 0 2226 -0.354778 1
gene 1 211 343 3.72219 0 2227 3.72219 1
gene 1 212 343 -1.61191 0 2228 -1.61191 1
gene 1 213 343 0.626774 0 2229 0.626774 1
gene 1 214 343 3.52985 0 2230 3.52985 1
gene 1 215 343 0.92616 0 2231 0.92616 1
gene 1 216 343 4.6708 0 2232 4.6708 1
gene 1 217 343 2.7121 0 2233 2.7121 1
gene 1 218 343 -4.22338 0 2234 -4.22338 1
gene 1 219 343 4.57064 0 2235 4.57064 1
gene 1 220 343 5.77519 0 2236 5.77519 1
gene 1 221 343 0.458922 0 2237 0.458922 1
gene 1 222 343 4.11922 0 2238 4.11922 1
gene 1 223 343 4.64278 0 2239 4.64278 1
gene 1 224 343 0.0345622 0 2240 0.0345622 1
gene 1 225 343 -0.733665 0 2241 -0.733665 1
gene 1 226 343 2.02155 0 2242 2.02155 1
gene 1 227 343 -4.06293 0 2243 -4.06293 1
gene 1 228 343 -2.1981 0 2244 -2.1981 1
gene 1 229 343 -3.44409 0 2245 -3.44409 1
gene 1 230 343 7.16608 0 2246 7.16608 1
gene 1 231 343 4.08147 0 2247 4.08147 1
gene 1 232 343 -1.95742 0 2248 -1.95742 1
gene 1 233 343 4.72541 0 2249 4.72541 1
gene 1 234 343 3.40648 0 2250 3.40648 1
gene 1 235 343 -0.331507 0 2251 -0.331507 1
gene 1 236 343 -0.406125 0 2252 -0.406125 1
gene 1 237 343 4.76287 0 2253 4.76287 1
gene 1 238 343 0.812693 0 2254 0.812693 1
gene 1 239 343 0.0995666 0 2255 0.0995666 1
gene 1 240 343 4.12351 0 2256 4.12351 1
gene 1 241 343 1.63289 0 2257 1.63289 1
gene 1 242 343 1.80412 0 2258 1.80412 1
gene 1 243 343 4.11695 0 2259 4.11695 1
gene 1 244 343 -5.08896 0 2260 -5.08896 1
gene 1 245 343 3.37536 0 2261 3.37536 1
gene 1 246 343 -2.03551 0 2262 -2.03551 1
gene 1 247 343 4.71384 0 2263 4.71384 1
gene 1 248 343 7.62432 0 2264 7.62432 1
gene 1 249 343 2.50465 0 2265 2.50465 1
gene 1 250 343 -0.120991 0 2266 -0.120991 1
gene 1 251 343 -4.17196 0 2267 -4.17196 1
gene 1 252 343 3.22611 0 2268 3.22611 1
gene 1 253 343 3.36711 0 2269 3.36711 1
gene 1 254 343 2.6091 0 2270 2.6091 1
gene 1 255 343 4.85487 0 2271 4.85487 1
gene 1 256 343 -1.95378 0 2272 -1.95378 1
gene 1 257 343 0.150838 0 2273 0.150838 1
gene 1 258 343 0.530984 0 2274 0.530984 1
gene 1 259 343 2.29865 0 2275 2.29865 1
gene 1 260 343 -0.00115207 0 2276 -0.00115207 1
gene 1 261 343 -6.16707 0 2277 -6.16707 1
gene 1 262 343 5.47052 0 2278 5.47052 1
gene 1 263 343 4.62696 0 2279 4.62696 1
gene 1 264 343 4.41969 0 2280 4.41969 1
gene 1 265 343 -8 0 2281 -8 1
gene 1 266 343 -4.59006 0 2282 -4.59006 1
gene 1 267 343 -0.802942 0 2283 -0.802942 1
gene 1 268 343 -1.39164 0 2284 -1.39164 1
gene 1 269 343 2.69242 0 2285 2.69242 1
gene 1 270 343 3.85678 0 2286 3.85678 1
gene 1 271 343 -1.01807 0 2287 -1.01807 1
gene 1 272 343 -4.60196 0 2288 -4.60196 1
gene 1 273 343 0.504799 0 2289 0.504799 1
gene 1 274 343 1.20242 0 2290 1.20242 1
gene 1 275 343 -4.22483 0 2291 -4.22483 1
gene 1 276 343 -2.85249 0 2292 -2.85249 1
gene 1 277 343 -3.07978 0 2293 -3.07978 1
gene 1 278 343 -1.72483 0 2294 -1.72483 1
gene 1 279 343 -4.58518 0 2295 -4.58518 1
gene 1 280 343 -2.07907 0 2296 -2.07907 1
gene 1 281 343 0.450224 0 2297 0.450224 1
gene 1 282 343 -7.11055 0 2298 -7.11055 1
gene 1 283 343 -5.36103 0 2299 -5.36103 1
gene 1 284 343 -0.949736 0 2300 -0.949736 1
gene 1 285 343 -0.974258 0 2301 -0.974258 1
gene 1 286 343 -3.35517 0 2302 -3.35517 1
gene 1 287 343 -6.31904 0 2303 -6.31904 1
gene 1 288 343 -6.01314 0 2304 -6.01314 1
gene 1 289 343 -1.0303 0 2305 -1.0303 1
gene 1 290 343 6.90542 0 2306 6.90542 1
gene 1 291 343 3.64063 0 2307 3.64063 1
gene 1 292 343 8 0 2308 8 1
gene 1 293 343 0.464492 0 2309 0.464492 1
gene 1 294 343 8 0 2310 8 1
gene 1 295 343 4.17814 0 2311 4.17814 1
gene 1 296 343 0.266289 0 2312 0.266289 1
gene 1 297 343 -4.67849 0 2313 -4.67849 1
gene 1 298 343 -2.4649 0 2314 -2.4649 1
gene 1 299 343 0.0930509 0 2315 0.0930509 1
gene 1 300 343 7.1102 0 2316 7.1102 1
gene 1 301 343 -1.40851 0 2317 -1.40851 1
gene 1 302 343 -1.48259 0 2318 -1.48259 1
gene 1 303 343 -4.72756 0 2319 -4.72756 1
gene 1 304 343 -8 0 2320 -8 1
gene 1 305 343 4.81805 0 2321 4.81805 1
gene 1 306 343 -3.42395 0 2322 -3.42395 1
gene 1 307 343 -2.06999 0 2323 -2.06999 1
gene 1 308 343 5.52907 0 2324 5.52907 1
gene 1 309 343 2.81343 0 2325 2.81343 1
gene 1 310 343 0.98468 0 2326 0.98468 1
gene 1 311 343 0.632038 0 2327 0.632038 1
gene 1 312 343 2.27609 0 2328 2.27609 1
gene 1 313 343 -0.317927 0 2329 -0.317927 1
gene 1 314 343 6.03946 0 2330 6.03946 1
gene 1 315 343 3.24755 0 2331 3.24755 1
gene 1 316 343 1.69919 0 2332 1.69919 1
gene 1 317 343 -1.55911 0 2333 -1.55911 1
gene 1 318 343 2.5296 0 2334 2.5296 1
gene 1 319 343 -4.28648 0 2335 -4.28648 1
gene 1 320 343 -2.78855 0 2336 -2.78855 1
gene 1 321 343 -0.386822 0 2337 -0.386822 1
gene 1 322 343 0.974914 0 2338 0.974914 1
gene 1 323 343 1.34671 0 2339 1.34671 1
gene 1 324 343 -2.77245 0 2340 -2.77245 1
gene 1 325 343 -4.52406 0 2341 -4.52406 1
gene 1 326 343 -1.82562 0 2342 -1.82562 1
gene 1 327 343 -5.13915 0 2343 -5.13915 1
gene 1 328 343 5.35109 0 2344 5.35109 1
gene 1 329 343 5.37072 0 2345 5.37072 1
gene 1 330 343 3.25045 0 2346 3.25045 1
gene 1 331 343 -3.65276 0 2347 -3.65276 1
gene 1 332 343 1.90306 0 2348 1.90306 1
gene 1 333 343 1.53882 0 2349 1.53882 1
gene 1 334 343 2.22213 0 2350 2.22213 1
gene 1 335 343 -1.62198 0 2351 -1.62198 1
gene 1 336 343 -4.54955 0 2352 -4.54955 1
gene 1 1 344 -1.4977 0 2353 -1.4977 1
gene 1 2 344 2.23098 0 2354 2.23098 1
gene 1 3 344 -0.562685 0 2355 -0.562685 1
gene 1 4 344 -0.344478 0 2356 -0.344478 1
gene 1 5 344 -3.36032 0 2357 -3.36032 1
gene 1 6 344 -2.66564 0 2358 -2.66564 1
gene 1 7 344 3.998 0 2359 3.998 1
gene 1 8 344 -4.39558 0 2360 -4.39558 1
gene 1 9 344 5.03456 0 2361 5.03456 1
gene 1 10 344 -0.35577 0 2362 -0.35577 1
gene 1 11 344 5.69498 0 2363 5.69498 1
gene 1 12 344 0.690558 0 2364 0.690558 1
